been 0.1378106325864792 0.004469636827707291 0.2233341932296753 0.12331632524728775 0.1751159429550171 -0.041123416274785995 0.21450284123420715 0.03780769556760788 0.007845436222851276 -0.27690431475639343 0.1624978631734848 0.5728315711021423 -0.3753994405269623 0.054056745022535324 -0.11725625395774841 0.03980889543890953 0.29165440797805786 -0.10004974156618118 -0.40825355052948 0.12963195145130157 0.07090867310762405 0.4366728365421295 -0.2903466820716858 0.15557079017162323 -0.09782882034778595 0.4322976768016815 -0.2153628170490265 0.08795775473117828 -0.21649311482906342 0.2912321090698242 0.17787183821201324 -0.07889659702777863 -0.32532715797424316 -0.05056667700409889 0.2581223249435425 0.3694536089897156 0.31202974915504456 -0.6420108675956726 -0.24057896435260773 0.13820838928222656 -0.23809221386909485 -0.2534061372280121 -0.21128946542739868 0.44063320755958557 -0.17641723155975342 0.25344279408454895 -0.3562036454677582 -0.1180383488535881 -0.09687798470258713 -0.1693141907453537 -0.2900441586971283 0.2072349488735199 -0.008706227876245975 0.2453981190919876 -0.11327391117811203 -0.28038597106933594 0.2998065948486328 -0.3213842511177063 -0.40224310755729675 -0.1653616577386856 0.19715559482574463 -0.1793048083782196 0.14290371537208557 -0.6631190776824951 0.3382711708545685 -0.5381593108177185 0.04813246801495552 -0.2663699984550476 -0.2530510425567627 -0.2950262129306793 0.0053848279640078545 0.5830708742141724 -0.208251491189003 -0.30063727498054504 0.18607205152511597 0.6062789559364319 0.10747485607862473 0.4727950394153595 -0.09375996142625809 -0.17923018336296082 -0.17819491028785706 0.22154489159584045 -0.24771606922149658 -0.3261028230190277 -0.3925319015979767 -0.22785094380378723 -0.2001362442970276 0.43114861845970154 0.3006867468357086 0.1986011415719986 -0.17177623510360718 -0.22652457654476166 -0.25748494267463684 -0.05038486048579216 -0.19638271629810333 -0.052896980196237564 -0.10620871186256409 -0.1469225138425827 0.07396198064088821 0.4174383580684662
year -0.2879859209060669 -0.09318952262401581 0.34148404002189636 -0.2120317816734314 -0.12641946971416473 -0.1854000687599182 0.028027953580021858 -0.19386602938175201 -0.0985339879989624 0.2792045772075653 0.11462926864624023 0.4307161569595337 0.07555081695318222 0.25424647331237793 -0.23234450817108154 -0.015491032972931862 0.26253995299339294 0.1342380791902542 0.43144097924232483 0.19577482342720032 -0.11712982505559921 0.12679234147071838 0.02153533324599266 0.4445258378982544 0.2972262501716614 -0.12432139366865158 -0.08344392478466034 0.07784030586481094 0.031190140172839165 -0.17417818307876587 -0.07874847948551178 0.19933035969734192 0.11858075857162476 -0.12459792196750641 -0.05726161599159241 -0.3320711553096771 -0.062410932034254074 -0.21740221977233887 -0.285403847694397 -0.05679961293935776 0.21668154001235962 -0.18394958972930908 0.21078458428382874 0.29440659284591675 0.13246899843215942 0.2436896562576294 -0.23869167268276215 0.014188628643751144 -0.24756993353366852 -0.16566359996795654 -0.15107819437980652 -0.14483049511909485 0.42934662103652954 -0.11908227205276489 -0.03854256495833397 0.18413840234279633 -0.011636551469564438 -0.2631815969944 -0.32227617502212524 -0.023049259558320045 0.0691932663321495 0.10453738272190094 0.09314406663179398 -0.07584663480520248 0.07105011492967606 0.11928388476371765 0.05129765346646309 -0.06237034872174263 -0.3026351034641266 0.12978994846343994 0.14063048362731934 -0.37856996059417725 0.29205816984176636 -0.3324452340602875 0.6544227600097656 0.23584216833114624 0.21067047119140625 -0.38433364033699036 0.49133577942848206 0.11012997478246689 -0.34793415665626526 0.0984482392668724 0.04389002174139023 0.23149655759334564 -0.15376554429531097 -0.06342775374650955 -0.46228542923927307 -0.26645517349243164 0.31092146039009094 -0.18878920376300812 -0.27196356654167175 0.4742656946182251 -0.2688605487346649 -0.0630691796541214 0.1998550444841385 0.3052281439304352 0.1809675097465515 -0.037491485476493835 0.20272010564804077 0.39094001054763794
about -0.4374280869960785 -0.09810638427734375 0.1778605431318283 -0.4664914309978485 -0.0038854540325701237 0.24341769516468048 0.14274519681930542 0.12255978584289551 0.07053927332162857 -0.04304324463009834 0.22949156165122986 0.011164828203618526 0.29027771949768066 -0.16984674334526062 0.4525182545185089 0.15084771811962128 -0.255149781703949 -0.3476809859275818 -0.20181263983249664 -0.13797695934772491 -0.11843369901180267 -0.10605204850435257 -0.2029341757297516 -0.18683506548404694 -0.1513538360595703 -0.05984298139810562 -0.062286414206027985 0.10799970477819443 -0.29841527342796326 -0.10230755805969238 0.06097555160522461 0.06254513561725616 -0.49654504656791687 0.13434068858623505 -0.20118698477745056 0.033176206052303314 0.6213228702545166 -0.33319467306137085 0.33056870102882385 0.03146164491772652 0.03369325026869774 -0.16622500121593475 0.25592371821403503 0.022358624264597893 -0.027942810207605362 0.18383339047431946 -0.0866847038269043 -0.0353798046708107 -0.21058310568332672 -0.163230761885643 0.010272909887135029 -0.18124444782733917 0.024401457980275154 -0.16211965680122375 0.03425167128443718 -0.17205241322517395 -0.07641764730215073 -0.14383016526699066 -0.22530044615268707 -0.21786561608314514 -0.22783999145030975 -0.08265630900859833 0.12079398334026337 0.19833455979824066 -0.08685837686061859 -0.13984109461307526 -0.10885704308748245 -0.08906535059213638 0.14527885615825653 -0.02274933271110058 0.13829830288887024 -0.03545864298939705 -0.22103236615657806 0.17286184430122375 0.0728767067193985 0.001530880224891007 -0.3294159770011902 -0.27477872371673584 0.362478643655777 0.13774673640727997 -0.18226231634616852 0.07615756243467331 0.005953387822955847 -0.032645732164382935 0.18327857553958893 0.301839143037796 -0.112162746489048 -0.05319613590836525 0.19136686623096466 -0.42920708656311035 -0.3797883093357086 0.15059293806552887 0.03480803221464157 -0.19945263862609863 0.012939641252160072 0.09113305062055588 0.3290281295776367 -0.18109390139579773 0.19514650106430054 -0.14778000116348267
your 0.11891944706439972 -0.13374285399913788 -0.5653321146965027 -0.40881630778312683 0.0823839083313942 -0.30161041021347046 -0.21893930435180664 0.05634232610464096 2.575318794697523E-4 0.08438767492771149 -0.1686338186264038 0.1663242131471634 0.14333383738994598 -0.15135937929153442 0.11793467402458191 0.3953777849674225 -0.22061976790428162 0.0999748483300209 -0.1995801031589508 -0.13557958602905273 0.4129086136817932 0.06536111235618591 0.14679667353630066 -0.046460941433906555 0.06100839748978615 -0.10160835832357407 0.28918877243995667 0.039792876690626144 -0.0860256627202034 -0.18086767196655273 -0.0893159881234169 0.1071251928806305 -0.30209001898765564 0.04611166939139366 -0.17894628643989563 0.25874465703964233 0.14464214444160461 -0.04942118376493454 0.07886482775211334 -0.27542659640312195 -0.13961301743984222 0.3633010983467102 0.4406698942184448 0.07263623178005219 0.23611894249916077 0.03031003475189209 -0.15444809198379517 -0.31812211871147156 0.29865196347236633 0.008460765704512596 -0.13947197794914246 -0.06438813358545303 -0.16827881336212158 0.005181130487471819 0.04801895469427109 -0.12799930572509766 -0.1435423493385315 0.08207297325134277 0.15181870758533478 -0.19544999301433563 0.1762220412492752 -0.20036552846431732 -0.6454986333847046 0.3949090838432312 0.2678403854370117 -0.31591618061065674 -0.18305668234825134 0.09034866839647293 -0.13789720833301544 0.2226613163948059 -0.3272480070590973 -0.4473302662372589 -0.3019958436489105 0.11330508440732956 0.2701435387134552 -0.28024420142173767 0.10516948997974396 0.24056147038936615 0.17903544008731842 0.12187168002128601 0.13546715676784515 -0.252419114112854 -0.1436472088098526 0.05962664633989334 0.0627860352396965 0.07404453307390213 -0.3177114725112915 -0.06668180227279663 -0.20992939174175262 0.12558548152446747 -0.18788132071495056 -0.03294939175248146 0.13890211284160614 0.1232350692152977 -0.1176367849111557 0.3311205804347992 -0.025979099795222282 -0.09642995893955231 -0.11976222693920135 0.27599582076072693
without -0.05066760629415512 0.10591161251068115 0.22540472447872162 -0.34575217962265015 -0.20318154990673065 -0.45450758934020996 -0.27022847533226013 0.23760545253753662 0.061050157994031906 -0.1987299621105194 0.1018291562795639 0.42643117904663086 0.08903268724679947 0.09448999166488647 -0.004865474533289671 0.1098492443561554 -0.1816883385181427 0.04464922100305557 -0.09163828939199448 0.15659017860889435 0.026250608265399933 0.16980686783790588 0.22245414555072784 0.136986643075943 -0.08103421330451965 0.15501052141189575 -0.06881234794855118 0.1052442342042923 -0.23849907517433167 -4.4732424430549145E-4 -0.08957673609256744 -0.21930937469005585 -0.23980660736560822 -0.0896708071231842 0.16434769332408905 0.2773272693157196 -0.180809885263443 0.2851823568344116 0.021225905045866966 0.12821483612060547 -0.2502778470516205 -0.05170018970966339 0.21708978712558746 0.24413573741912842 -0.10389142483472824 -0.08306734263896942 -0.13949085772037506 0.3524303734302521 0.16108250617980957 -0.11476843059062958 -0.09802550077438354 0.040902283042669296 -0.03913094103336334 -0.012929247692227364 -0.02632587030529976 -0.20232108235359192 0.21936392784118652 -0.08663815259933472 -0.02305523492395878 -0.08808692544698715 0.01939566433429718 -0.10299870371818542 -0.06664882600307465 0.24686364829540253 0.009826221503317356 0.019897788763046265 0.02359992079436779 -0.14445671439170837 0.20115689933300018 0.12124887853860855 0.16701261699199677 0.1968703716993332 0.03921202942728996 0.12149085849523544 0.11851008981466293 0.34587717056274414 -0.15830346941947937 0.061503466218709946 0.0024539255537092686 -0.07229337096214294 -0.12148677557706833 -0.36073338985443115 -0.08795902878046036 0.2997429072856903 0.08863738179206848 0.02442384511232376 -0.4262872338294983 0.07358364015817642 -0.19092567265033722 -0.010164582170546055 -0.3935583531856537 0.17313724756240845 -0.2747173607349396 -0.25248095393180847 -0.09175651520490646 0.02631925418972969 0.061885539442300797 0.04133804887533188 0.06403376162052155 -0.08186379820108414
these 0.42537134885787964 -0.02840535342693329 0.31060680747032166 0.485418438911438 -0.24636727571487427 -0.5547433495521545 0.12086379528045654 -0.06310109049081802 -0.1037273108959198 -0.3312285542488098 0.04109526053071022 -0.09966371208429337 0.13335053622722626 0.14992988109588623 0.24069291353225708 0.19558046758174896 0.1625724583864212 -0.15779386460781097 -0.051418401300907135 0.001895848661661148 0.20130933821201324 -0.15653109550476074 0.15507495403289795 -0.15320312976837158 -0.04249607026576996 0.0825762078166008 0.3839714229106903 -0.19967679679393768 0.06680962443351746 0.11896736919879913 0.03748265281319618 0.2071082890033722 -0.14446476101875305 0.43112292885780334 0.27177363634109497 -0.074233278632164 0.026035042479634285 0.32119107246398926 -0.16125082969665527 -0.07162009179592133 -0.36526763439178467 0.14503495395183563 0.21811217069625854 0.045087553560733795 -0.22211290895938873 0.24971725046634674 0.3256402313709259 -0.06459259986877441 -0.07038472592830658 0.06332166492938995 -0.0631549209356308 0.15348677337169647 -0.24769937992095947 -0.18627867102622986 -0.05824476480484009 0.08672601729631424 -0.10261844843626022 -0.45059868693351746 -0.012285115197300911 -0.3822751045227051 -0.2433985471725464 0.5549197196960449 -0.17446571588516235 0.46940311789512634 -0.2569711208343506 0.02233380824327469 -0.12799756228923798 0.1426442712545395 -0.08191941678524017 0.2060912698507309 0.38921815156936646 -0.09082683175802231 0.19638825953006744 0.17246904969215393 0.16748905181884766 -0.29630547761917114 0.05805090442299843 0.10680080950260162 0.14356768131256104 0.39109864830970764 0.024168111383914948 -0.10284553468227386 0.31876492500305176 -0.3661484122276306 -0.29398566484451294 0.06581592559814453 0.086229607462883 0.11969950795173645 -0.004509838297963142 -0.23348218202590942 -0.046993110328912735 -0.30022257566452026 0.001726748188957572 -0.11358896642923355 -0.19119083881378174 -0.01510239951312542 -0.034202996641397476 0.12518231570720673 -0.08768382668495178 -0.20782151818275452
companies 0.1783595234155655 0.08873773366212845 0.17611722648143768 0.09796527028083801 0.05144965648651123 -0.3276447057723999 0.15293173491954803 0.08410677313804626 -0.11008260399103165 -0.0667051374912262 -0.051059454679489136 -0.1464165300130844 0.1267695426940918 -0.10212187469005585 -0.0752488225698471 0.12310799956321716 0.1176641657948494 0.2285715490579605 0.21673721075057983 0.03841603919863701 -0.023729568347334862 -0.005638225935399532 -0.04287976399064064 0.08176590502262115 -0.07387033104896545 -0.08935192227363586 0.2985232472419739 0.08777708560228348 -0.04392443969845772 -0.17505641281604767 0.14815770089626312 0.10320352017879486 0.09140549600124359 -0.036170922219753265 0.14661654829978943 -0.09702177345752716 0.053406842052936554 -0.06341684609651566 -0.023360535502433777 -0.16777552664279938 -0.20721440017223358 -0.05589507147669792 -0.026186343282461166 0.07300130277872086 -0.09586413204669952 0.013230513781309128 -0.14203715324401855 -0.07812681794166565 -0.1772397756576538 -0.17790913581848145 0.002589683048427105 0.13266506791114807 0.09416254609823227 -0.06554505974054337 -0.10784075409173965 0.024758655577898026 -0.14798277616500854 -0.14655140042304993 0.22316238284111023 0.012080018408596516 0.12276751548051834 0.17115755379199982 -0.23115362226963043 0.20749293267726898 0.18634340167045593 0.03877490013837814 -0.2064470648765564 -0.06219124794006348 0.13871826231479645 0.17246414721012115 0.051990412175655365 0.023484982550144196 0.2181718349456787 0.12402298301458359 0.008311728946864605 -0.21781963109970093 0.02223855070769787 -0.03451636806130409 0.007543361745774746 0.043123237788677216 -0.19151662290096283 -0.07715850323438644 0.09575633704662323 -0.10921633988618851 -0.14783494174480438 -0.11448818445205688 -0.0319598913192749 0.3838534951210022 -0.00166953238658607 -0.008665800094604492 0.0944843590259552 -0.04810633510351181 -0.0854809582233429 -0.1481306254863739 -0.2575548589229584 -0.21234498918056488 -0.1357317566871643 0.018297383561730385 0.02273920364677906 -0.13690422475337982
music -0.13859273493289948 0.02065984532237053 0.028626060113310814 -0.23544543981552124 0.27578914165496826 0.249275341629982 0.045906029641628265 -0.09915895760059357 0.003925272263586521 0.046269677579402924 -0.08760587871074677 -0.2641725540161133 0.08078952878713608 -0.2828233540058136 -0.053356513381004333 -0.19164730608463287 0.11087226122617722 0.1646069884300232 0.3237001895904541 -0.08054021000862122 0.18274882435798645 0.0031753424555063248 -0.025839494541287422 -0.036767520010471344 0.009586375206708908 -0.11659935116767883 -0.0333966501057148 -0.013190778903663158 0.04964923486113548 0.03824777156114578 -0.2151823788881302 0.030896784737706184 -0.026153026148676872 -0.12406207621097565 0.16380015015602112 -0.0053321197628974915 0.30862489342689514 -0.18765245378017426 0.0901109129190445 -0.26437169313430786 0.1595826894044876 -0.12772807478904724 0.15462294220924377 0.3473578989505768 -0.08093525469303131 0.04618440195918083 -0.22069193422794342 0.1465105265378952 0.19029353559017181 -0.029776494950056076 0.15999168157577515 -0.03248400613665581 0.0179748497903347 0.1519498974084854 0.14360837638378143 0.09815585613250732 -0.23057635128498077 -0.06590436398983002 0.016882391646504402 0.16785076260566711 0.0773225873708725 -0.15011011064052582 0.1282835751771927 0.07349395751953125 0.022605571895837784 0.031953245401382446 0.19979894161224365 0.004079018719494343 0.1192450150847435 0.2737911343574524 0.047131381928920746 -0.14857175946235657 0.022120818495750427 0.1278400719165802 -0.3240007162094116 -0.06176334246993065 0.056611087173223495 0.0859077200293541 0.08226975053548813 -0.10823962092399597 0.09819813817739487 -0.19681806862354279 -0.2134191244840622 -0.05691734701395035 -0.3176165223121643 -0.04170214384794235 0.13624100387096405 -0.03689524903893471 0.04895440861582756 0.0922088772058487 0.06987593322992325 0.19613134860992432 0.1457047015428543 -0.07485082000494003 -0.052906472235918045 0.07404141128063202 -0.0755445659160614 0.0037415954284369946 0.09098204225301743 0.020784636959433556
would -0.22362087666988373 -0.16294755041599274 0.06213986873626709 0.18753723800182343 0.05556662380695343 -0.4428632855415344 0.2522512972354889 -0.2034400850534439 -0.05493598058819771 -0.2174646109342575 0.16568276286125183 0.15098734200000763 -0.0662328377366066 0.33806777000427246 -0.06941255927085876 0.10082465410232544 -0.10280095040798187 -0.005381930619478226 0.12029804289340973 0.20071664452552795 0.06617894023656845 0.26168566942214966 -0.17826855182647705 -0.23789577186107635 -0.15986622869968414 0.04341168701648712 0.02306157536804676 0.04867316037416458 0.2698882818222046 0.0410684309899807 -0.269085168838501 0.06604555249214172 0.019547201693058014 0.2914770841598511 -0.30221208930015564 0.07777678221464157 -0.4189622700214386 0.12253721803426743 0.2864741384983063 0.11767800897359848 0.2860933542251587 0.06883332133293152 -0.14013488590717316 -0.018491826951503754 -0.12126146256923676 -0.21032112836837769 -0.27113598585128784 -0.09276460111141205 -0.1567247360944748 -0.0180477537214756 0.15346013009548187 0.2085108458995819 -0.020727405324578285 0.29100093245506287 0.2553623914718628 -0.06416624784469604 0.31906306743621826 0.09837118536233902 0.22410371899604797 -0.1838507205247879 0.24998772144317627 -0.2233911156654358 0.11575355380773544 -0.10006310045719147 -0.0844753086566925 -0.04625672847032547 0.0965154841542244 0.10884234309196472 -0.015059193596243858 0.3258815109729767 -0.20586003363132477 0.05708317458629608 0.041244808584451675 0.08261849731206894 -0.055812135338783264 0.1743016242980957 -0.11856172978878021 -0.13248522579669952 -0.2456578016281128 -0.20751379430294037 1.5752710169181228E-4 -0.461474746465683 -0.1499287188053131 0.18731261789798737 -0.052879758179187775 -0.2444291114807129 -0.037343353033065796 0.12446056306362152 0.14066427946090698 -0.2519168555736542 0.010361999273300171 0.10088300704956055 0.10093896836042404 0.016256893053650856 0.02165675349533558 0.0021325398702174425 0.2387150526046753 0.08945997059345245 -0.1336877942085266 -0.14468494057655334
because 0.16533784568309784 -0.06356945633888245 0.19113057851791382 0.03244572877883911 0.14967110753059387 0.03411330655217171 -0.09728056192398071 0.13486401736736298 0.06983280926942825 0.005165489390492439 -0.10001690685749054 -0.032041240483522415 0.04738956689834595 0.06405803561210632 0.054345786571502686 -0.06172573193907738 -0.049711674451828 -0.1455085277557373 0.052942026406526566 0.14906300604343414 0.16309885680675507 -0.07884853333234787 -0.11522838473320007 -0.07408621907234192 0.06711190193891525 0.09088031202554703 -0.19059644639492035 0.18429814279079437 -0.13459308445453644 0.2149239033460617 -0.12688729166984558 -0.11465591937303543 -0.11931095272302628 -0.00953591987490654 0.26181748509407043 0.2512570023536682 -0.06858851760625839 0.21594543755054474 0.1292070895433426 -3.3670017728582025E-4 0.25610896944999695 -0.0040911464020609856 -0.0025271663907915354 -0.02419695071876049 -0.07362979650497437 -0.04387500137090683 -0.1743713617324829 0.06257843971252441 -0.031335778534412384 -0.17848101258277893 -0.0938124880194664 0.0476953350007534 -0.10547136515378952 -0.1402537077665329 -0.05204632505774498 -0.11267980188131332 -0.19930127263069153 -0.2654317617416382 -0.03987664729356766 -0.21931640803813934 -0.10691342502832413 0.2702919542789459 0.14881019294261932 0.218972846865654 0.158972829580307 0.10421343147754669 -0.05899184197187424 -0.14212371408939362 -0.0095210587605834 0.06295648217201233 0.059546343982219696 0.09262076765298843 0.08231159299612045 -0.12304946035146713 -0.1206234022974968 0.13103561103343964 -0.12330774962902069 -0.06824469566345215 0.08487769216299057 -0.3008343279361725 0.11742102354764938 -0.1884860247373581 -0.17413035035133362 0.00942818634212017 -0.08888401836156845 0.13231922686100006 -0.03887833654880524 -0.09406958520412445 0.15250688791275024 0.04258108139038086 0.15291857719421387 -0.053427256643772125 -0.09926096349954605 0.00863959826529026 0.03640023618936539 0.10429728031158447 -0.16670554876327515 -0.16303205490112305 0.11864590644836426 -0.002490879036486149
state 0.10152681916952133 0.26139843463897705 0.018500810489058495 -0.018622448667883873 -0.09187964349985123 -0.17914564907550812 0.01805787906050682 0.012493129819631577 -0.04883445054292679 -0.010249445214867592 0.104977086186409 -0.03980531170964241 0.2319970279932022 -0.09095924347639084 -0.09479871392250061 0.06395066529512405 0.19940005242824554 0.2908456027507782 0.245690256357193 -0.1468334048986435 -0.03251030296087265 -0.027288105338811874 -0.04803052172064781 0.21354596316814423 -0.0653655156493187 0.07532507926225662 0.002765011740848422 0.011048403568565845 0.14180953800678253 -0.1317446529865265 0.026903534308075905 0.014999487437307835 -0.0010631362674757838 -0.02227211371064186 0.18364392220973969 0.04897654056549072 0.39112645387649536 0.027705280110239983 0.046415384858846664 -0.13059358298778534 0.158619225025177 -0.11753440648317337 -0.026739656925201416 0.5084884166717529 -0.20486226677894592 0.09696327149868011 -0.34413236379623413 0.06153855100274086 0.2297012358903885 0.09336905181407928 -0.03359072282910347 0.029369249939918518 0.1395447552204132 -0.0313868522644043 0.06721112132072449 0.19819150865077972 -0.006588524207472801 -0.16390836238861084 0.08204855769872665 0.116239033639431 -0.17210599780082703 -0.09229177981615067 0.06921995431184769 0.1940862387418747 0.074593186378479 0.0442618653178215 -0.007983095943927765 0.05060775578022003 -0.004489834886044264 0.2047143280506134 0.021348861977458 -0.15898104012012482 0.014734068885445595 0.26538732647895813 0.046887028962373734 0.007079247385263443 0.13221994042396545 -0.15922313928604126 0.14247308671474457 0.04425639659166336 -0.18641279637813568 0.007814713753759861 0.007693380583077669 0.06881020218133926 -0.14376750588417053 -0.03497176617383957 -0.016134057193994522 0.042105600237846375 -0.06243426725268364 -0.007592645939439535 -0.0587703175842762 0.21254152059555054 -0.10045428574085236 -0.16652166843414307 -0.29099082946777344 -0.11928743124008179 -0.163429394364357 0.28148502111434937 0.05068453028798103 0.22458703815937042
they 0.11625935137271881 -0.19651682674884796 -0.05252191424369812 0.055977076292037964 0.05554534122347832 -0.2995712161064148 0.21292851865291595 0.26673680543899536 -0.23574236035346985 -0.07929971814155579 -0.09900572896003723 -0.2872616946697235 0.08065610378980637 -0.38670143485069275 -0.06179818883538246 0.30923694372177124 -0.11484885215759277 0.004474765155464411 0.025508949533104897 0.04081055149435997 0.05462738871574402 0.11058054864406586 -0.22737911343574524 -0.013268442824482918 0.22867146134376526 0.04677748307585716 -0.09657032787799835 -0.08472169935703278 0.07643761485815048 -0.0632776990532875 0.23207974433898926 -0.15032948553562164 -0.06465703248977661 0.32998380064964294 -0.29327869415283203 -0.19251880049705505 0.08869415521621704 0.16161461174488068 0.1318899691104889 0.04362056404352188 -0.29815348982810974 -0.0012160817859694362 -0.1825505793094635 -0.07574013620615005 -0.14777439832687378 -0.054317571222782135 0.0636182650923729 -0.08358690142631531 -0.19445516169071198 0.1706610769033432 -0.18363793194293976 0.00550773786380887 0.07407977432012558 -0.20431563258171082 0.1746821105480194 0.2943912148475647 0.03917210176587105 0.18250910937786102 -0.035785917192697525 -0.07091163843870163 0.34884634613990784 0.06742972135543823 -0.31493961811065674 -0.03301827982068062 -0.3083131015300751 0.09116575866937637 -0.031957317143678665 0.27668240666389465 -0.027122102677822113 0.21935400366783142 0.3634689152240753 -0.041065920144319534 -0.11374739557504654 -0.39179369807243347 0.059136513620615005 -0.10411960631608963 -0.24092385172843933 0.13432790338993073 0.07847175002098083 0.3230487108230591 -0.14218094944953918 -0.1680804342031479 0.014061426743865013 0.08227737993001938 0.12301822006702423 0.08043180406093597 -0.0739562064409256 0.3688998818397522 -0.19903652369976044 -0.03516272455453873 0.05555376783013344 -0.15916280448436737 0.05084593594074249 -0.058969900012016296 0.08167947083711624 0.010340026579797268 0.07956047356128693 -0.055848415940999985 -0.08956725895404816 -0.1494373232126236
you 0.12974728643894196 -0.20031578838825226 0.05609622970223427 0.11159072071313858 -0.013519208878278732 -0.2090228646993637 0.15607589483261108 -0.08270785212516785 0.007874295115470886 0.016758032143115997 -0.10893759876489639 -0.14948320388793945 -0.05883180350065231 -0.2321348786354065 0.18540047109127045 0.4083799421787262 -0.2706744968891144 -0.08461272716522217 0.207290917634964 -0.03807299584150314 -0.29853251576423645 -0.05467895790934563 -0.013294748961925507 0.08365801721811295 -0.2773205041885376 -0.2187338024377823 0.11111707240343094 -0.3263956904411316 -0.14707432687282562 0.03476232290267944 0.151495099067688 -0.10625260323286057 0.262076199054718 0.025575650855898857 -0.08623325824737549 0.010010376572608948 0.04092321917414665 0.1130363941192627 0.12469634413719177 -0.17625826597213745 -0.051362935453653336 -0.1491909921169281 -0.005863329861313105 -0.20420272648334503 0.04807808995246887 -0.2912963926792145 -0.06315599381923676 -0.16041384637355804 -0.27597174048423767 -0.22017647325992584 0.03762396052479744 -0.042696528136730194 0.11909906566143036 -0.1416187882423401 -0.16429494321346283 0.2977205514907837 0.17794513702392578 0.1224307119846344 0.1741357296705246 -0.1778983771800995 -0.03944481536746025 -0.11685947328805923 -0.3790336549282074 -0.07873119413852692 -0.35692983865737915 -0.16542144119739532 -0.0029881037771701813 -0.029532883316278458 -0.132466122508049 0.18843311071395874 0.19888193905353546 0.1704273372888565 0.01581883803009987 -0.5192058086395264 -0.27338501811027527 -0.06534335762262344 -0.0558222234249115 0.02851889282464981 0.06104379519820213 -0.14433932304382324 0.06774673610925674 -0.09821086376905441 -0.11429651081562042 -0.25401219725608826 0.09744377434253693 0.0402989387512207 -0.14674726128578186 0.21724894642829895 -0.06753522157669067 0.22902193665504456 0.19900043308734894 0.08983112126588821 0.24290123581886292 0.1970978081226349 0.031014317646622658 -0.19576387107372284 0.352172315120697 0.07608414441347122 -0.4621623456478119 0.24474836885929108
$ -0.002129496308043599 0.010434504598379135 -0.006071238312870264 -0.0012031369842588902 0.011515509337186813 -0.04330253228545189 -0.021978793665766716 -0.019041825085878372 -0.030597126111388206 0.03317787125706673 -0.006202380172908306 0.004607595503330231 0.005386930890381336 0.018059371039271355 -0.018096162006258965 0.006866394076496363 0.021076666191220284 0.03447628766298294 0.025244738906621933 0.009231090545654297 -0.015835195779800415 0.04292995482683182 0.021485038101673126 0.0051935696974396706 5.875732749700546E-4 -0.03977320343255997 0.047428395599126816 -0.028731510043144226 0.001367134042084217 0.01503954641520977 -0.03840877115726471 0.006781504489481449 0.02386951632797718 -0.025093086063861847 0.016452867537736893 0.010089191608130932 -0.05923759192228317 0.003030785359442234 -0.03147735819220543 -0.02277763932943344 -0.012498104013502598 0.017946947365999222 -0.002112510148435831 -0.0057900892570614815 0.009695365093648434 -0.012514641508460045 -0.013555409386754036 -0.010494912043213844 0.01813805289566517 -0.03846978768706322 0.0013490497367456555 0.023061977699398994 0.007057277951389551 -0.02481653168797493 -0.013149736449122429 -0.009547927416861057 -0.05237773433327675 -0.03184828162193298 0.05389748886227608 -0.006493828259408474 -0.002164632547646761 0.01607232354581356 -0.04210537299513817 0.06779155135154724 0.04894323647022247 0.0109136076644063 0.0019732723012566566 0.016607018187642097 0.01947617530822754 -0.005069926381111145 -0.03264632821083069 0.007233871147036552 0.06363094598054886 0.00610007718205452 -0.007537879049777985 -8.217939175665379E-4 0.015455911867320538 0.011339275166392326 -0.012351893819868565 -0.01884939894080162 0.004396100994199514 -0.017459101974964142 -0.01766844466328621 -0.01395338587462902 -0.016835112124681473 -0.03529397398233414 -0.022485509514808655 0.031473249197006226 -0.03737485781311989 0.014963422901928425 0.010634977370500565 0.014843017794191837 -0.024078652262687683 -0.04414527118206024 -0.025185255333781242 0.033572886139154434 -0.032009270042181015 -0.011181928217411041 -0.006403143983334303 -0.021627403795719147
going -0.010999858379364014 -0.7996874451637268 -0.31107988953590393 0.23286579549312592 0.3262699246406555 -0.23628711700439453 -0.20887653529644012 -0.09308966994285583 0.29704952239990234 0.05259106680750847 0.17288465797901154 0.4412562847137451 -0.17362259328365326 -0.07658517360687256 -0.047654587775468826 0.2487199902534485 -0.10475493222475052 -0.43609005212783813 0.10941024124622345 -0.29797661304473877 -0.07430487871170044 -0.07745073735713959 -0.18451330065727234 0.09911435842514038 -0.11811219900846481 -0.2876673936843872 -0.058194514364004135 -0.26362237334251404 -0.07198256999254227 -0.14460590481758118 -0.26998528838157654 0.12293834239244461 0.08364199846982956 0.15870113670825958 -0.1647077053785324 0.27837568521499634 -0.05423473194241524 -0.06761401891708374 -0.1823684275150299 0.23947013914585114 0.31291624903678894 0.10575266182422638 -0.19945576786994934 -0.36659571528434753 0.19507230818271637 -0.16783607006072998 0.16022521257400513 -0.017836235463619232 -0.24737465381622314 -0.0918627679347992 -0.33603179454803467 -0.40415123105049133 0.18366539478302002 0.03469913825392723 -0.013796406798064709 -0.18626593053340912 -0.4200608432292938 0.2707330882549286 0.03838176652789116 -0.17607919871807098 0.05057094991207123 0.11728764325380325 -0.18909668922424316 0.5248593091964722 0.24386660754680634 0.2643800675868988 0.004125696606934071 0.1657717376947403 -0.06418377161026001 0.1624440848827362 -0.12951228022575378 -0.030018065124750137 -0.2346421629190445 0.09501365572214127 0.06825210899114609 0.022657793015241623 0.23926009237766266 -0.009546088054776192 0.1259915679693222 -0.08637585490942001 -0.2496321052312851 -0.3106848895549774 -0.2698321044445038 0.0038576480001211166 -0.14114272594451904 0.1974588930606842 0.11318269371986389 -0.019638733938336372 0.0842226967215538 0.3537558317184448 -0.04077059403061867 -0.09510698169469833 0.2883187532424927 0.3091447353363037 -0.0812208354473114 0.2463880330324173 0.2583693265914917 -0.26934337615966797 -0.220033198595047 0.07115624099969864
old 0.3090723156929016 -0.1899021416902542 0.14859983325004578 0.4740101993083954 0.2019687294960022 -0.23581235110759735 0.26283177733421326 0.17342640459537506 0.24460959434509277 -0.1337871253490448 0.15338757634162903 -0.2032725065946579 -0.0935252457857132 -0.0786440446972847 0.006390207447111607 -0.16089801490306854 0.16636379063129425 0.20147734880447388 -0.056941404938697815 -0.23921599984169006 -0.10385182499885559 -0.33162975311279297 0.29268819093704224 0.2912096083164215 0.2182527631521225 -0.043071117252111435 0.06108199432492256 -0.16146805882453918 -0.050127722322940826 -0.2408851981163025 0.07465320825576782 0.05639151483774185 -0.16642184555530548 0.11200449615716934 -0.2701297700405121 0.11868882179260254 0.002008440438657999 0.18087898194789886 -0.3078884184360504 0.11369600147008896 0.013730023056268692 -0.09632851183414459 0.33776360750198364 0.1403806060552597 -0.052059855312108994 0.4210873544216156 -0.02747136354446411 0.40632325410842896 0.16912896931171417 0.08077672868967056 -0.016404688358306885 0.05317213013768196 -0.1308983564376831 0.22499430179595947 0.03858460858464241 0.3766421377658844 -0.0043609729036688805 -0.2691221535205841 0.2828865647315979 -0.1798376441001892 -0.022880686447024345 0.02278413064777851 -0.10477836430072784 0.30947399139404297 0.2031349539756775 0.1653027981519699 -0.06049250811338425 -0.07463093101978302 0.2616129219532013 0.15141254663467407 -0.13423801958560944 0.009096235036849976 -0.31325316429138184 0.5831794142723083 -0.03623652458190918 -0.11698686331510544 0.13871920108795166 0.0721924677491188 0.13064664602279663 -0.11293752491474152 0.05896592512726784 -0.21686725318431854 0.35069215297698975 -0.09390272200107574 -0.1255287230014801 -0.1552920937538147 0.09599266946315765 -0.05110238492488861 0.25278985500335693 -0.11644560098648071 0.07891642302274704 -0.2369707077741623 0.03890339657664299 -0.0063980137929320335 -0.10599994659423828 -0.05484525114297867 0.1355171948671341 0.2433677613735199 0.14099791646003723 0.18477535247802734
want 0.126061350107193 -0.07067923247814178 -0.2100071907043457 -0.10006950050592422 -0.19680294394493103 -0.1472724825143814 -0.14038097858428955 -0.15068238973617554 -0.13465040922164917 0.1074087992310524 0.30818551778793335 0.4212392568588257 0.04048891365528107 0.020373884588479996 0.35359129309654236 0.20883117616176605 -0.062265027314424515 0.1873982697725296 -0.007409898564219475 -0.07103271037340164 -0.48269885778427124 -0.008005338720977306 -0.13118280470371246 -0.3219970762729645 -0.33304014801979065 -0.21487872302532196 -0.03196093067526817 -0.09823310375213623 -0.0915406122803688 -0.013508117757737637 -0.44946974515914917 0.04457205533981323 -0.15012773871421814 0.031474821269512177 0.1194116547703743 0.21236863732337952 -0.3966546952724457 -0.027676919475197792 0.3508438467979431 -0.14602743089199066 0.16054728627204895 0.2605762183666229 -0.04414061829447746 -0.13879843056201935 -0.049370668828487396 -0.6155768632888794 0.3375617563724518 0.07831253856420517 0.17176838219165802 -0.10517708957195282 0.27887511253356934 -0.19595110416412354 -0.1539238691329956 -0.1899423748254776 0.14178285002708435 -0.3270886242389679 -0.11776717752218246 0.31667619943618774 0.09186293929815292 -0.26091790199279785 0.07159065455198288 0.13955818116664886 -0.17978228628635406 0.12321940809488297 -0.11102161556482315 -0.2867375314235687 0.16047599911689758 0.1775391846895218 0.305642694234848 0.22844015061855316 -0.17694123089313507 0.08893787860870361 0.05610419809818268 0.23712487518787384 -0.17949768900871277 -0.01193040981888771 -0.15277211368083954 -0.3098595440387726 -0.004373112227767706 -5.983826704323292E-4 0.02374117076396942 -0.42977064847946167 -0.24657413363456726 0.22893384099006653 -0.11854436248540878 -0.10654153674840927 0.07623980194330215 -0.001170789240859449 -0.1823796033859253 -0.11652582883834839 -0.059619054198265076 0.15376953780651093 0.3254435658454895 0.028010249137878418 -0.0068554384633898735 -0.20026321709156036 -0.04616635665297508 0.19009536504745483 0.04448014125227928 -0.41542351245880127
night -0.27983877062797546 0.11654679477214813 0.03184308484196663 -0.02245546691119671 0.035274188965559006 0.3474242687225342 0.3436720073223114 -0.17585410177707672 0.22463732957839966 0.09841413795948029 0.12898221611976624 0.22811397910118103 -0.006786335725337267 -0.08173782378435135 -0.26016753911972046 -0.12942196428775787 0.4519476890563965 0.2581271529197693 0.37336018681526184 -0.18925811350345612 -0.1796608418226242 -0.310888409614563 0.19510506093502045 0.36511561274528503 0.251583069562912 -0.03573803976178169 0.073138527572155 -0.13376687467098236 0.12768353521823883 0.01206360012292862 -0.35450440645217896 0.2385454773902893 -0.058118369430303574 -0.028684785589575768 -0.2107124626636505 -0.042269516736269 -0.22388960421085358 0.03156508132815361 -0.19489796459674835 -0.2657500207424164 0.016938945278525352 -0.10784605890512466 0.1567164808511734 0.013816149905323982 0.09066352993249893 0.48326241970062256 -0.06136730685830116 0.08534058928489685 0.19750213623046875 -0.11787507683038712 0.15696820616722107 -0.23837390542030334 0.42104867100715637 0.18468911945819855 -0.07187553495168686 0.041984014213085175 -0.09514999389648438 0.13311754167079926 -0.2694259285926819 -0.0503682903945446 0.14430032670497894 -0.07488450407981873 0.00694181676954031 -0.016465112566947937 0.06324271112680435 -0.19319026172161102 0.007345685735344887 0.18259650468826294 -0.022568272426724434 0.08073395490646362 0.37458574771881104 -0.06698799878358841 0.32192757725715637 -0.051156893372535706 0.4251137971878052 0.33618292212486267 0.2327674925327301 -0.10937859117984772 0.19035112857818604 -0.09301865100860596 -0.07830363512039185 -0.04208005219697952 -0.19308863580226898 0.2578100562095642 -0.12135022133588791 -0.3122575879096985 -0.08059665560722351 -0.23771914839744568 0.39285731315612793 0.1297551691532135 -0.35818588733673096 0.08268983662128448 -0.2259972244501114 0.12327099591493607 0.05023517832159996 0.39055049419403076 0.08409906178712845 -0.14641118049621582 0.2632351815700531 -0.002317765261977911
them 0.26107555627822876 0.2607143521308899 0.0662437304854393 0.1981106996536255 0.03996611759066582 -0.1564924269914627 0.24536500871181488 -0.12173347175121307 -0.2916853427886963 -0.06797964870929718 0.038844771683216095 -0.29495567083358765 -0.14184440672397614 0.24138329923152924 -0.1656404733657837 0.06604154407978058 0.17187799513339996 0.12431735545396805 0.112442746758461 0.09500845521688461 0.004621907602995634 0.30132970213890076 -0.01597152091562748 -0.0381578654050827 0.16294816136360168 -0.09141667187213898 0.09211597591638565 -0.2830471992492676 -0.1683627814054489 -0.2049722671508789 -0.06507717818021774 0.24406588077545166 -0.08643118292093277 0.05717852711677551 0.29540586471557617 0.029697926715016365 -0.17777571082115173 -0.018355680629611015 -0.2247268110513687 -0.34104809165000916 0.024427857249975204 0.009480031207203865 0.06730370968580246 0.03912138566374779 0.05539733171463013 -0.1764199435710907 0.22667518258094788 -0.30229270458221436 -0.17705851793289185 -0.32879966497421265 -0.21723289787769318 -0.10221594572067261 0.11176732927560806 -0.1759389340877533 -0.00711851054802537 -0.08978057652711868 -0.28283944725990295 -0.45977887511253357 0.014459528028964996 -0.036223091185092926 0.09885718673467636 0.2297167032957077 -0.22427192330360413 0.43085309863090515 0.2817574143409729 -0.11687182635068893 0.06677784025669098 0.14213137328624725 -0.26066529750823975 0.10793118178844452 0.38559871912002563 0.07496943324804306 0.22385670244693756 -0.17497257888317108 0.015857107937335968 0.0057097021490335464 0.022768313065171242 -0.17684409022331238 -0.21002402901649475 0.014561017975211143 0.205627903342247 -0.25025221705436707 -0.12307026237249374 -0.2680310010910034 -0.19083252549171448 -0.11673985421657562 0.12055294215679169 0.15701858699321747 0.15636003017425537 -0.16850627958774567 -0.018845710903406143 0.09543810784816742 0.21441246569156647 -0.09178284555673599 0.052556999027729034 0.20941215753555298 -0.19123484194278717 -0.0779992938041687 -0.27358490228652954 -0.14821423590183258
then -0.09331152588129044 0.13617157936096191 -0.18211683630943298 0.07183442264795303 0.03635398671030998 0.01462895330041647 0.062258802354335785 0.023407332599163055 0.20852455496788025 0.019953986629843712 -0.011950653977692127 0.2421150952577591 -0.1066674292087555 0.021817263215780258 -0.06859688460826874 -0.17380616068840027 -0.20793533325195312 -0.12385345995426178 0.13746555149555206 -0.09749283641576767 0.021149342879652977 -0.06772497296333313 -0.09274047613143921 -0.042668960988521576 0.1875690370798111 0.11425841599702835 0.03115394338965416 -0.05886370316147804 -0.12097492814064026 0.004364187829196453 -0.09554187953472137 0.11075257509946823 0.15757881104946136 0.16837625205516815 0.23677456378936768 0.10480688512325287 -0.12136279791593552 0.11525790393352509 -0.06773971021175385 -0.10411534458398819 -0.014134122990071774 0.19682937860488892 0.2965700626373291 -0.15503159165382385 0.07126931101083755 -0.11585215479135513 0.12674905359745026 -0.2658178508281708 -0.09150606393814087 0.11663259565830231 -0.02131367102265358 -0.01735190488398075 0.23749087750911713 0.04906207323074341 -0.1441633403301239 0.1466788947582245 0.03432466462254524 0.013338723219931126 -0.10506746172904968 0.2866528034210205 0.12305097281932831 0.00459863618016243 -0.16339410841464996 0.2704654633998871 -0.4001772105693817 0.22050638496875763 0.03029114007949829 0.003275891300290823 -0.04303361847996712 0.11682966351509094 0.07479211688041687 -0.13060316443443298 0.1960926651954651 0.21649907529354095 0.10198616236448288 0.15999771654605865 -0.229195699095726 -0.003086092881858349 0.035425957292318344 -0.03978975489735603 -0.03195920214056969 0.042239055037498474 -0.11629380285739899 0.4890856444835663 -0.0599890872836113 0.2560439109802246 -0.33621102571487427 -0.05592993274331093 -0.1469237357378006 -0.19072158634662628 -0.14441534876823425 -0.0835060328245163 -0.0639205276966095 0.11604367941617966 -0.40488266944885254 -0.08840478211641312 -0.14562033116817474 -0.3032624125480652 -0.07838700711727142 -0.007653841283172369
court 0.03982972726225853 0.08301661908626556 -0.32657116651535034 0.11972908675670624 0.05530087277293205 0.11034295707941055 -0.07509942352771759 -0.015518074855208397 0.10718713700771332 0.060623250901699066 0.04443564638495445 0.15206299722194672 0.01923825964331627 -0.21032576262950897 -0.3509451746940613 0.05846554413437843 0.16314607858657837 0.18858034908771515 0.07052187621593475 -0.15040522813796997 -0.036646049469709396 -0.0837862566113472 -0.09183444827795029 0.3448258936405182 0.0409519262611866 -0.03670775517821312 -0.0972076877951622 -0.049602851271629333 0.1939019411802292 0.031601682305336 -0.21037167310714722 0.02895479090511799 -0.017362434417009354 -0.27819010615348816 0.04340844228863716 0.2911350429058075 0.12848900258541107 -0.05159485712647438 -0.14814017713069916 0.01840946078300476 0.03837418928742409 0.12493020296096802 -0.09502597153186798 0.10398171097040176 0.03915521502494812 0.06608551740646362 -0.14798970520496368 0.11962608993053436 0.10289555042982101 0.0948529839515686 7.048827246762812E-4 0.16310997307300568 0.08917778730392456 0.11478394269943237 0.0752146914601326 0.002581097884103656 -0.10655875504016876 0.10344613343477249 0.10242384672164917 0.031188787892460823 -0.10999268293380737 -0.1410295069217682 -0.0015072301030158997 0.1518835574388504 0.005110379308462143 0.09161791205406189 0.10635478049516678 0.15475459396839142 0.10198433697223663 0.3652788996696472 0.20941781997680664 0.0047234175726771355 -0.19187816977500916 -0.062857486307621 0.09188884496688843 -0.12135186791419983 0.07283937931060791 0.12394609302282333 0.07683020830154419 -0.18133138120174408 -0.04371631518006325 -0.14211905002593994 -0.13902875781059265 0.012533865869045258 -0.11423739045858383 -0.15090666711330414 0.08122581243515015 -0.10102014988660812 0.06275082379579544 0.27419158816337585 -0.05453844740986824 0.19350099563598633 -0.3547264039516449 -0.029268795624375343 -0.1990404725074768 0.025974176824092865 -0.006049704737961292 0.0259627103805542 -0.10345375537872314 0.11325221508741379
an -0.06943894922733307 0.2648296356201172 -0.11520947515964508 -0.023409033194184303 -0.022021299228072166 0.005839511286467314 0.026808878406882286 0.027019035071134567 0.3589226007461548 0.06718907505273819 -0.0025475649163126945 0.307770311832428 0.03674955293536186 -0.008750270120799541 -0.17714788019657135 0.038175180554389954 0.20626327395439148 0.2821454703807831 0.12381400913000107 -0.00926206074655056 -0.09436814486980438 0.3785431385040283 0.12181105464696884 0.13584941625595093 0.005460967309772968 0.09181773662567139 -0.011970399878919125 -0.09585119038820267 -0.3115798234939575 -0.39733850955963135 0.062457066029310226 0.12657320499420166 0.13189354538917542 -0.05112721771001816 -0.10309938341379166 0.22010564804077148 0.016971705481410027 0.14034973084926605 -0.05247312784194946 -0.18066614866256714 -0.033414632081985474 -0.20676903426647186 0.1572141796350479 0.08921054005622864 0.11079321801662445 -0.04117795079946518 -0.007538159377872944 0.27962926030158997 0.23550836741924286 -0.31685593724250793 -0.02135557308793068 -0.15609025955200195 0.2533983886241913 0.031842976808547974 -0.055280063301324844 0.05563594028353691 0.0753137618303299 0.05544181913137436 0.021710563451051712 -0.20810382068157196 0.15377509593963623 0.08195337653160095 -0.1325683742761612 0.1485919952392578 0.40808412432670593 0.15058369934558868 -0.2514572739601135 0.09389299899339676 0.1505654901266098 0.15347355604171753 -0.04320961609482765 0.10237694531679153 -0.3080434203147888 0.1467275619506836 0.03453605994582176 0.028319941833615303 0.18636971712112427 -0.15426133573055267 0.10290049016475677 0.03836628049612045 -0.10832120478153229 -0.09260174632072449 0.06032811477780342 0.1586504727602005 -8.953323122113943E-4 0.0338052473962307 -0.1141158789396286 -0.030288275331258774 0.11657939106225967 0.23612657189369202 -0.0884154736995697 0.0033906428143382072 -0.012624233961105347 0.21063651144504547 -0.2493610382080078 -0.17021723091602325 -0.1240730956196785 0.1972876340150833 -0.10566756874322891 0.12229832261800766
- -0.11521399021148682 0.108660027384758 0.04625409096479416 -0.023659851402044296 0.02999570220708847 -5.818554782308638E-4 -0.0053991093300282955 0.019322426989674568 -0.08623071759939194 0.13298943638801575 0.025225099176168442 0.02062874287366867 0.08064184337854385 -0.005622901488095522 -0.019855979830026627 -0.02859511412680149 -0.00458483723923564 0.009341567754745483 0.0937284454703331 0.040860045701265335 -0.04198398441076279 0.029044555500149727 -0.018886258825659752 0.04885318875312805 0.022912094369530678 0.00552559457719326 -0.07888544350862503 -0.04856371507048607 -0.14930860698223114 -0.11453893035650253 -0.023157874122262 0.04801753908395767 0.033220283687114716 0.057291269302368164 0.04008138179779053 -0.005250086542218924 0.0047150575555861 -0.08378665149211884 -0.08469090610742569 -0.03561104089021683 0.026729000732302666 -0.07260504364967346 0.06999219954013824 0.13433176279067993 0.00577138178050518 0.11350617557764053 -0.12234526127576828 0.026403626427054405 0.02584989368915558 0.01616722345352173 -0.09876754879951477 -0.0624200664460659 0.06066454201936722 -0.0781744047999382 -0.05080980435013771 0.07443661242723465 -0.03452588617801666 -0.10316785424947739 -0.04093208909034729 -0.024783508852124214 -0.005968520417809486 0.13942444324493408 0.001073423190973699 0.012509729713201523 -0.005547767039388418 0.13413095474243164 -0.03623497113585472 -0.028026176616549492 0.09272465854883194 -0.022690817713737488 0.06186873838305473 0.01872568577528 -0.0726814717054367 0.03351805359125137 0.16585539281368256 -0.03614744544029236 -0.01142171211540699 -0.06811913102865219 0.00903803389519453 0.021452320739626884 0.08077210187911987 -0.14031310379505157 0.06463310122489929 -0.029186563566327095 -0.054799776524305344 0.15525700151920319 -0.15181797742843628 -0.03707624971866608 0.03055364266037941 -0.07911986112594604 -0.11613895744085312 -0.02573627233505249 -0.10416042804718018 0.03953789174556732 -0.04254639148712158 -0.04855474457144737 0.02159694768488407 -0.03481883928179741 0.07080357521772385 -0.027529386803507805
each -0.032296713441610336 -0.22472433745861053 -0.13388939201831818 0.024754635989665985 0.26906001567840576 -0.1308141052722931 0.30815672874450684 -0.050135452300310135 -0.0050889067351818085 0.018989205360412598 -0.14423240721225739 -0.018812937662005424 0.1890699863433838 0.11503961682319641 -0.47258853912353516 0.25792646408081055 0.3667275905609131 0.47353848814964294 -0.018899958580732346 0.11881549656391144 -0.26746153831481934 0.09910191595554352 -0.1871226280927658 -0.15851671993732452 0.06265265494585037 -0.38498416543006897 0.20941105484962463 -0.489889919757843 -0.3462390899658203 -0.4359241724014282 -0.06451248377561569 0.3491273820400238 0.07637153565883636 -0.14968015253543854 0.4434199631214142 0.12675324082374573 -0.3401854634284973 0.27309370040893555 -0.1599416583776474 -0.38766491413116455 0.016432443633675575 0.16060219705104828 -0.11515477299690247 -0.1894172728061676 0.0969197154045105 0.24910715222358704 -0.11171827465295792 -0.3364226520061493 0.23542292416095734 -0.338793009519577 0.027537750080227852 0.1844402700662613 0.10387524217367172 -0.026562977582216263 0.2592562437057495 -0.25189208984375 -0.2258116900920868 0.039278384298086166 0.15566761791706085 0.1190827339887619 0.06402775645256042 0.340884268283844 0.013890965841710567 0.1755998283624649 0.273546040058136 -0.029885543510317802 -0.37535926699638367 0.20555917918682098 0.16185681521892548 -0.0385289303958416 0.11035215109586716 -0.07889369875192642 0.6633203625679016 2.2729707416146994E-4 0.3544316589832306 -0.24941182136535645 0.21434563398361206 -0.28018802404403687 -0.6912630200386047 -0.026263894513249397 -0.11385701596736908 0.08533311635255814 0.12618239223957062 -0.2501869797706604 -0.2070864588022232 -0.1965768039226532 0.13439245522022247 0.17678846418857574 -0.004426141269505024 0.07653716206550598 0.021080227568745613 -0.03836480528116226 -0.20511594414710999 0.0498042069375515 -0.07495970278978348 -0.12612944841384888 -0.4711301028728485 -0.07467921078205109 -0.19094794988632202 -0.2790330946445465
former 0.004893283825367689 0.08806566894054413 0.0055411080829799175 0.009695598855614662 -0.031007539480924606 5.824850522913039E-4 0.05448253080248833 -0.0019874386489391327 0.019256068393588066 -0.0031704409047961235 0.022077329456806183 0.052127089351415634 0.026377256959676743 0.004684008192270994 -0.0018611245322972536 0.006737712770700455 0.06606684625148773 0.1032738909125328 0.06460025161504745 -0.049288760870695114 0.05740625038743019 -0.05890669673681259 0.014301896095275879 0.06803476065397263 0.03297644853591919 0.015984132885932922 0.02893681451678276 0.05127920210361481 0.026034453883767128 -0.0248987078666687 0.012091420590877533 0.027327993884682655 -0.02359689772129059 -0.014087706804275513 0.053597718477249146 -0.016655925661325455 0.05743950977921486 -0.07801847159862518 -0.003295508213341236 -0.05022520571947098 0.0013871081173419952 0.0015224694507196546 -0.014418374747037888 0.1259404569864273 -0.009987831115722656 0.050739943981170654 -0.0752420723438263 0.04071997478604317 0.06505316495895386 0.015922516584396362 -0.020293796434998512 0.050255801528692245 0.014131667092442513 0.05080721899867058 0.055164653807878494 0.03435909375548363 -0.003917071968317032 -0.02939498983323574 0.01549665629863739 -0.002286978531628847 -0.05970029532909393 -0.00827622227370739 0.08139636367559433 -0.016422266140580177 0.0786360502243042 0.04231720045208931 0.006860227324068546 -3.7480052560567856E-4 0.009825742803514004 0.06999178975820541 0.02668297477066517 -0.008308877237141132 -0.017599361017346382 0.06148719787597656 0.027340412139892578 -0.02500021643936634 0.06344351172447205 -0.021574601531028748 0.048653606325387955 -0.010751882568001747 -0.05261824280023575 0.003010406391695142 0.040929682552814484 -0.041370149701833725 -0.06955611705780029 0.02814421057701111 0.015796633437275887 0.007116689346730709 0.008919995278120041 -0.0667315125465393 -0.028267866000533104 -0.00851655937731266 -0.06903070956468582 -0.017554432153701782 -0.05200861021876335 -0.06364267319440842 -0.0056870318949222565 0.06489882618188858 0.0171273872256279 0.07628726959228516
as -0.06560353189706802 -0.2674180269241333 0.3648596405982971 -0.13686050474643707 -0.05568014085292816 -0.14158642292022705 -0.1835981160402298 -0.17196789383888245 -0.2623513638973236 0.11832872778177261 0.07389596849679947 -0.034215666353702545 -0.016785265877842903 -0.010834228247404099 0.2929176390171051 -0.2956453561782837 -0.24733591079711914 0.4678620398044586 0.15587995946407318 0.31336817145347595 0.3182857930660248 -0.2830980718135834 -0.1350511610507965 -0.0597047321498394 0.26337745785713196 0.1057099923491478 0.05369236692786217 -0.10795261710882187 -0.4110535681247711 -0.0032240997534245253 -0.1502021700143814 -0.4340468645095825 -0.07336138933897018 0.0995320975780487 0.032222870737314224 -0.2745608389377594 -0.4284069538116455 -0.24279090762138367 0.19125953316688538 -0.0582667700946331 -0.13428965210914612 0.07527598738670349 -0.4027796983718872 0.05875672772526741 -0.39255625009536743 0.2540203034877777 0.3511805534362793 0.19733743369579315 0.14354544878005981 -0.23729895055294037 -0.3031204044818878 -0.2156211882829666 0.33486971259117126 -0.19163772463798523 0.01176958717405796 0.15477944910526276 -0.009313339367508888 0.09407846629619598 0.1685653179883957 -0.2892223000526428 -0.168426975607872 0.11268601566553116 -0.3107149600982666 0.1324600726366043 -0.024068716913461685 -0.25849649310112 -0.298155277967453 -0.05304258316755295 -0.24851243197917938 0.15123796463012695 0.33941343426704407 0.19964076578617096 0.1717156320810318 -0.06842716038227081 -0.03812377154827118 0.12792928516864777 0.3102363348007202 0.0760626420378685 -0.10601356625556946 -0.5751215219497681 0.04760222136974335 0.13742171227931976 0.054187238216400146 -0.22807618975639343 -0.02538154274225235 -0.21962013840675354 -0.34586063027381897 -0.04380567744374275 0.05056477710604668 0.31268635392189026 -0.1530427783727646 -0.24043017625808716 -0.005560852587223053 0.09139635413885117 0.29624849557876587 -0.2765493094921112 -0.20938292145729065 -0.06861485540866852 0.2659622132778168 0.1989680826663971
at 0.053482990711927414 -0.1174953505396843 -0.23071593046188354 -0.05964503809809685 -0.1264999955892563 -0.193712517619133 0.29388362169265747 0.16614073514938354 0.07607969641685486 0.2557554543018341 -0.03138493373990059 -0.273222953081131 -0.1264929622411728 0.4958091974258423 -0.11443290114402771 0.1761694997549057 0.4163319766521454 0.2642543911933899 0.277881920337677 -0.12156853079795837 0.28557536005973816 -0.2961266338825226 -0.017377162352204323 0.18896877765655518 0.2950872778892517 -0.09620629251003265 -0.3587447702884674 -0.5184542536735535 0.1373782455921173 0.11236599832773209 0.034099139273166656 -0.10262627899646759 -0.373806357383728 -0.25941047072410583 0.312639057636261 0.40298718214035034 0.25577017664909363 0.17730924487113953 0.2701030373573303 -0.09846270829439163 -0.12443981319665909 0.15169449150562286 -0.23987716436386108 -0.003907349891960621 0.062496818602085114 0.33246511220932007 0.3380773663520813 -0.19219031929969788 0.36482733488082886 -0.056943733245134354 -0.12003334611654282 0.12940829992294312 0.13943013548851013 0.028255298733711243 -0.1346854269504547 -0.2177966684103012 0.09197292476892471 -0.2921370267868042 -0.021245038136839867 -0.3525663912296295 0.032105982303619385 0.007860474288463593 0.27965033054351807 0.18602928519248962 0.2830508053302765 0.3215528726577759 0.015378284268081188 0.3516860008239746 -0.058535218238830566 -0.006547565571963787 0.07083611190319061 0.1413036435842514 -0.11507251113653183 -0.1607987880706787 0.1711566150188446 0.20791232585906982 0.00810063537210226 -0.1499895304441452 -0.05604122579097748 -0.1151108592748642 -0.11372842639684677 -0.1351410299539566 0.32288381457328796 0.11125282198190689 0.043435316532850266 -0.0977746993303299 0.10635504126548767 -0.18747112154960632 0.2847611904144287 -0.2807389497756958 -0.2618491053581238 -0.02706250362098217 -0.15373781323432922 0.282446950674057 -0.00919702835381031 0.0667562261223793 0.13979382812976837 -0.2259291410446167 0.15411600470542908 -0.3990369141101837
left 0.19156131148338318 0.2873329818248749 0.22498120367527008 0.11292017251253128 0.007577000185847282 -0.19261378049850464 0.017317261546850204 0.2483091950416565 0.17976300418376923 0.056918155401945114 0.13392747938632965 0.1304028332233429 -0.0557088665664196 -0.1211375817656517 -0.25067439675331116 -0.18234820663928986 -0.04918670281767845 0.06948193907737732 0.01436637993901968 -0.13457545638084412 0.16937097907066345 0.056896280497312546 0.0330052375793457 -0.05595200136303902 -0.06052985414862633 0.0861920714378357 0.12727314233779907 -0.19367697834968567 0.03945351019501686 0.1201697587966919 -0.09185335785150528 -0.05242740735411644 -0.07385635375976562 -0.22225341200828552 0.0693991631269455 0.33751535415649414 0.09428788721561432 -0.204340398311615 -0.3564310073852539 -0.009001444093883038 -0.1877804696559906 0.07696521282196045 -0.1308552771806717 0.38542887568473816 0.01649032160639763 0.2489784061908722 -0.24849998950958252 -0.16071180999279022 -0.2978120744228363 -0.10349097102880478 -0.08925317972898483 0.09773694723844528 0.2207384556531906 0.366385281085968 -0.1988973319530487 0.1822582185268402 -0.15005826950073242 -0.41284042596817017 0.011075659655034542 0.035622961819171906 -0.07661698013544083 0.09119808673858643 -0.13205038011074066 0.07819356769323349 0.15215066075325012 0.2444406896829605 0.07540889829397202 0.09237877279520035 0.18645979464054108 -0.11675860732793808 -0.13110698759555817 0.39194121956825256 -0.09275787323713303 0.12992405891418457 0.00964528787881136 0.235307976603508 -0.12867170572280884 0.17007742822170258 -0.21436850726604462 -0.181929349899292 -0.2160034328699112 -0.17720285058021545 0.19627094268798828 -0.1719450205564499 -0.29741722345352173 0.060138072818517685 -0.008162585087120533 0.13154007494449615 0.11887823790311813 -0.10903427749872208 -0.1397671103477478 -0.15244810283184052 -0.3107166886329651 -0.0071913739666342735 -0.450986385345459 0.05661938712000847 0.12397506833076477 -0.13390719890594482 8.655133424326777E-4 0.08733873069286346
much 0.2637222707271576 -0.3201304078102112 0.37380507588386536 -0.2732997238636017 0.5155600905418396 0.4366511106491089 0.05180022865533829 0.08674394339323044 -0.13141727447509766 0.2010488063097 -0.2225702404975891 -0.315053790807724 -0.07320041954517365 -0.1141880452632904 -0.0581161193549633 -0.4401501715183258 -0.02270018868148327 0.0186148788779974 -0.5316362977027893 0.30729183554649353 -0.10668426752090454 0.41798731684684753 0.0039030613843351603 0.02558719739317894 -0.047079768031835556 -0.3064744770526886 -0.31054070591926575 0.04279414936900139 -0.2714873254299164 -0.2666141986846924 0.1618785262107849 -0.14558923244476318 -0.09219777584075928 -0.15906308591365814 -0.24545930325984955 0.1053503006696701 0.0028696884401142597 0.44438475370407104 -0.19529415667057037 -0.17412061989307404 0.21744780242443085 -0.1449340134859085 0.5800036787986755 0.16406863927841187 0.15532846748828888 -0.04997694864869118 -0.007183421868830919 0.1471557915210724 -0.37445831298828125 -0.37704986333847046 0.08347436785697937 0.3637426197528839 -0.27154970169067383 0.3428296446800232 0.31646794080734253 0.11400342732667923 -0.2659662067890167 -0.2811984121799469 0.08502595126628876 0.08402766287326813 0.20593363046646118 0.10108080506324768 -0.45184025168418884 -0.05842819809913635 0.04352511093020439 -0.019438311457633972 0.10817418992519379 0.0783524438738823 0.26089221239089966 -0.015661824494600296 -0.49905985593795776 -0.03268712759017944 -0.058125946670770645 -0.3426501452922821 -0.2817968726158142 0.08633632957935333 -0.36405330896377563 0.022310441359877586 -0.4374831020832062 0.06356129795312881 0.18673667311668396 -0.43704259395599365 -0.20500726997852325 0.11129593849182129 0.022842280566692352 -0.2507854700088501 -0.2719794809818268 0.15123631060123444 0.2737782895565033 -0.1710696518421173 0.3512524962425232 0.19606605172157288 0.3840058743953705 0.01780969835817814 0.0985497385263443 0.1632760465145111 0.04023047164082527 0.056390974670648575 -0.010338430292904377 -0.07936736196279526
be -0.25238096714019775 -0.06002836674451828 -0.1736045628786087 -0.04260915145277977 -0.1177363395690918 -0.22727321088314056 0.21665717661380768 0.05303129553794861 0.16861571371555328 -0.2737870216369629 0.057827141135931015 0.13253076374530792 -0.20420387387275696 0.06091729924082756 -0.5657539963722229 0.2165064960718155 -0.027499277144670486 -0.05356049910187721 -0.03717542439699173 0.2577928304672241 0.11859509348869324 0.22750379145145416 -0.1648135632276535 0.17074434459209442 0.03521924465894699 0.020591430366039276 -0.2295452505350113 0.0667734369635582 0.06002011522650719 0.18294917047023773 0.4264821708202362 -0.34120532870292664 -0.2818237543106079 -0.35594794154167175 0.023412426933646202 0.1153535544872284 -0.10399168729782104 -0.06837882101535797 0.01905376836657524 0.0938851609826088 -0.3865377604961395 -0.15731969475746155 0.006808530539274216 0.30594637989997864 -0.17656736075878143 -0.11178766936063766 -0.0015629471745342016 0.11607887595891953 -0.31417855620384216 0.047570038586854935 -0.15955759584903717 0.03019344061613083 -0.09562456607818604 -0.16257746517658234 -0.25362274050712585 -0.27643531560897827 0.12495879083871841 -0.10128940641880035 -0.30481621623039246 -0.1827729493379593 0.033852655440568924 0.15249304473400116 0.09677435457706451 -0.10214090347290039 0.32033997774124146 -0.2065204679965973 -0.021293558180332184 -0.30729296803474426 -0.07529576122760773 0.21469348669052124 -0.10765619575977325 0.2505853474140167 -0.22161786258220673 -0.32335227727890015 0.08295558393001556 0.14926445484161377 0.006864015944302082 -0.002280233893543482 0.1714816689491272 -0.07474865019321442 -0.10723501443862915 0.007425755262374878 -0.2358231395483017 -0.14538316428661346 0.09043680131435394 -0.2046796828508377 -0.11266501992940903 -0.13708293437957764 0.37202224135398865 0.35764172673225403 -0.16505077481269836 0.28414857387542725 0.07227347791194916 -0.189947709441185 -0.048063602298498154 -0.31230518221855164 -0.2744249701499939 0.1316930502653122 -0.05683908984065056 0.16849319636821747
another -0.21566954255104065 0.2039089947938919 -0.059598129242658615 0.26471421122550964 -0.041182998567819595 0.033814966678619385 0.12417284399271011 0.04265586659312248 0.5191298127174377 0.08929804712533951 -0.07775593549013138 0.3295804262161255 0.1296350210905075 0.21977712213993073 -0.27053600549697876 0.3651517331600189 0.059734046459198 0.22140449285507202 0.14280001819133759 0.01124769076704979 -0.12577328085899353 0.1634921133518219 0.18363788723945618 0.00466602249071002 0.3575188219547272 0.23760461807250977 -0.0326044000685215 0.14505204558372498 -0.2823195159435272 0.08041921257972717 -0.17032113671302795 -0.008525258861482143 0.08994817733764648 -0.037516605108976364 0.010166934691369534 -0.049331389367580414 -0.14678208529949188 -0.053254593163728714 -0.1535782814025879 -0.22258076071739197 -0.16146622598171234 -0.09156310558319092 -0.02611285261809826 0.33391982316970825 0.4569541811943054 0.1233026310801506 -0.22221381962299347 -0.21074776351451874 0.022270023822784424 -0.07930218428373337 0.18869440257549286 -0.09598042070865631 -0.056278809905052185 0.09877898544073105 -0.25851044058799744 0.2247971147298813 0.10121303051710129 0.06662671267986298 0.1694432646036148 0.1452169120311737 0.16597293317317963 0.09280036389827728 -0.34563612937927246 -0.021839860826730728 0.21908199787139893 -0.1668393611907959 0.271882563829422 -0.2154514640569687 -0.018471943214535713 -0.13462413847446442 -0.11059049516916275 -0.13419312238693237 0.12013383209705353 -0.17212079465389252 0.14433857798576355 -0.09135748445987701 0.1433931589126587 -0.11726199835538864 -0.047728344798088074 -0.11139382421970367 0.4890243411064148 -0.4142971336841583 0.17415960133075714 -0.09590516984462738 0.3918364644050598 0.1661115139722824 -0.014744219370186329 -0.5299697518348694 -0.046261265873909 0.12460289150476456 0.11718723922967911 -0.13290923833847046 0.023470696061849594 0.0509406179189682 0.030416861176490784 -0.07764840871095657 -0.2413625568151474 -0.03864022344350815 -0.11581110209226608 0.3797042667865753
two -0.17286157608032227 0.21553201973438263 0.33473071455955505 0.4252646863460541 0.04668784886598587 -0.40817511081695557 0.06840396672487259 -0.0716547816991806 -0.024314504116773605 0.18371811509132385 0.07646144926548004 0.24352580308914185 0.16273438930511475 0.08926878124475479 -0.1324104517698288 0.10295907407999039 0.018640505149960518 0.1432209014892578 0.1700473427772522 -0.026670394465327263 -0.20537005364894867 -0.1664048135280609 0.10307745635509491 0.1481565237045288 0.09288293123245239 0.014541557990014553 0.03572971373796463 -0.2206542044878006 -0.028507325798273087 0.20667225122451782 -0.27713096141815186 0.23154591023921967 0.0036657978780567646 -0.10985007137060165 0.1205059215426445 -0.14808005094528198 -0.06942771375179291 -0.4781269133090973 -0.2728610932826996 -0.12253420054912567 -0.20520764589309692 0.3853347599506378 0.40631625056266785 0.3107406497001648 0.21339750289916992 0.5379765033721924 -0.37824350595474243 -0.11954283714294434 -0.3588494658470154 -0.023255398496985435 -0.37464582920074463 0.10321079194545746 0.33260902762413025 0.2776986062526703 -0.2952115535736084 0.12371750921010971 -0.18372823297977448 -0.29940265417099 0.31302452087402344 0.06971049308776855 0.24414287507534027 0.24429410696029663 -0.503731906414032 -0.0604570209980011 -0.007088897284120321 0.3259831666946411 0.06815133988857269 -0.046340420842170715 0.1924101710319519 -0.036159172654151917 0.14345291256904602 0.06997954845428467 0.22738642990589142 -0.10477056354284286 0.6040368676185608 -0.13469626009464264 -0.23020485043525696 -0.027806485071778297 -0.2715374529361725 0.021729202941060066 -0.008190109394490719 0.14222891628742218 0.5113170146942139 -0.5374920964241028 0.05542103573679924 -0.07570283114910126 -0.19909977912902832 -0.0981254056096077 0.2605958580970764 -0.14660388231277466 -0.2053135335445404 -0.11582900583744049 -0.7687587141990662 -0.354438841342926 -0.3259775638580322 0.12028055638074875 0.2014092653989792 -0.29708781838417053 -0.20760025084018707 0.24467797577381134
long 0.025674914941191673 0.0725661888718605 0.43887290358543396 0.17040760815143585 0.24545808136463165 -0.412320077419281 0.06311576813459396 0.17967602610588074 0.09833920001983643 0.14381536841392517 0.4174310266971588 0.20354518294334412 -0.4323093891143799 -2.198659349232912E-4 -0.0774034634232521 0.056843627244234085 0.4135385751724243 -0.021467866376042366 -0.3886851668357849 0.16074955463409424 -0.16979922354221344 -0.1257840096950531 0.13009019196033478 0.7511981725692749 0.4632887542247772 -0.06307683885097504 -0.2792459726333618 0.2981095612049103 -0.24246281385421753 -0.5765745043754578 0.15939396619796753 -0.16479170322418213 0.08205991983413696 0.28674501180648804 -0.5010123252868652 0.12478163838386536 0.22258958220481873 -0.005288104526698589 -0.6129123568534851 0.24976594746112823 0.026571199297904968 -0.04970227926969528 0.1645711213350296 -0.19844593107700348 0.38688039779663086 0.3320538103580475 -0.12130405753850937 0.11821158230304718 -0.2408178597688675 0.04739690572023392 -0.15652050077915192 -0.1571236252784729 -0.11516700685024261 0.6266445517539978 0.1152745857834816 -0.08028516173362732 0.22660082578659058 0.18947546184062958 -0.039143890142440796 -0.006608740426599979 0.833227276802063 -0.019699953496456146 -0.17265453934669495 -0.3142392337322235 0.551675021648407 -0.1495683342218399 -0.5210980176925659 -0.26773738861083984 0.015771647915244102 -0.2235846072435379 -0.3047434985637665 0.16655780375003815 -0.5143881440162659 -0.6040533185005188 0.2094244658946991 -0.0801386907696724 -0.06095303222537041 -0.11641289293766022 0.2710997462272644 0.04775150492787361 0.24845857918262482 0.03876534104347229 -0.18282969295978546 0.3626277446746826 0.3283636271953583 -0.6254627704620361 -0.5009085536003113 -0.1489410549402237 0.30000847578048706 0.19518166780471802 0.03549069166183472 0.16811655461788177 -0.045459114015102386 0.25176432728767395 0.4034036099910736 0.33920058608055115 0.04556378349661827 0.08546659350395203 0.2110186070203781 0.04404200613498688
how 0.10798890888690948 -0.2517322897911072 0.20495465397834778 -0.031623829156160355 0.2709806561470032 0.13255847990512848 -0.06144044175744057 -0.35454824566841125 -0.0802193284034729 0.3062115013599396 -0.04066355153918266 -0.07164463400840759 0.042872052639722824 -0.2223738580942154 0.2978607416152954 -0.23307166993618011 -0.013309502974152565 0.01306340005248785 0.03922828286886215 0.32169052958488464 0.08103565871715546 -0.07737112045288086 -0.012803694233298302 0.20006270706653595 -0.133525550365448 0.06376103311777115 0.06294099986553192 -0.30489617586135864 -0.5092648863792419 -0.21755430102348328 0.08007851988077164 0.018138708546757698 0.0934714525938034 -0.2423562854528427 0.2786717712879181 -0.1763768494129181 -0.3592801094055176 0.020544132217764854 0.07099054008722305 -0.22015947103500366 0.05182997137308121 -0.016369285061955452 -0.017126167193055153 0.1320808082818985 -0.25966155529022217 -0.03285429626703262 0.21071530878543854 -0.09059730172157288 0.048759207129478455 -0.431598424911499 -0.28766313195228577 -0.07977461069822311 0.3304925858974457 -0.15817409753799438 -0.10209665447473526 -0.07683923095464706 -0.207563579082489 0.5538877248764038 0.12486837059259415 -0.31541094183921814 -0.12037761509418488 -0.20460325479507446 -0.11818632483482361 0.16479122638702393 -0.18037718534469604 -0.11796510219573975 -0.4536629021167755 0.010444768704473972 0.007439380045980215 0.05383210629224777 -0.06382079422473907 0.0356464721262455 0.2678423821926117 0.20632247626781464 0.0517614372074604 0.205710768699646 0.1215488389134407 -0.05958757922053337 -0.20977279543876648 0.008060922846198082 0.11014080047607422 0.11402598023414612 -0.2226162850856781 0.19523443281650543 -0.007226042915135622 0.34323588013648987 -0.4986507296562195 0.08360148221254349 -0.42569148540496826 -0.15596140921115875 -0.07845867425203323 -0.07623361796140671 0.10177727788686752 0.03741033747792244 0.22337765991687775 -0.23403692245483398 -0.6039272546768188 -0.11012086272239685 0.2871406078338623 0.15660472214221954
into 0.05469684302806854 0.18663489818572998 -0.04561111330986023 0.16513945162296295 -0.08235787600278854 -0.08976713567972183 -0.04237263649702072 -0.027045592665672302 -0.09317882359027863 0.23730972409248352 0.020027192309498787 -0.15185686945915222 -0.014008188620209694 0.09157820045948029 -0.0179235078394413 0.1620946079492569 0.17613990604877472 0.0386362224817276 -0.04812706634402275 -0.11910571157932281 -0.05030569061636925 0.11094580590724945 0.06518383324146271 0.22678415477275848 0.12393017113208771 -0.07935759425163269 0.06617964059114456 0.004079434089362621 -0.047648608684539795 0.11324124783277512 -0.04106269031763077 0.03473404794931412 0.13661226630210876 -0.35908588767051697 -0.22490505874156952 0.09387972205877304 -0.0832391008734703 -0.08714937418699265 0.05040786787867546 -0.1009649708867073 -0.22210560739040375 -0.12493635714054108 0.2182435244321823 -0.19452695548534393 0.06334894895553589 -0.05472315102815628 -0.03488607332110405 0.09116309881210327 0.2537830173969269 -0.2881576418876648 0.29590606689453125 -0.10779662430286407 0.2698597311973572 -0.08849210292100906 -0.07552449405193329 -0.12569893896579742 0.14516277611255646 0.062268223613500595 0.11165370047092438 -0.282000333070755 0.044350240379571915 -0.1264292299747467 -0.09567773342132568 0.24703511595726013 0.19127783179283142 -0.24726681411266327 -0.04465626925230026 -0.1557178497314453 -0.013042597100138664 0.027335938066244125 0.15782921016216278 -0.2006370723247528 0.043741293251514435 0.13115611672401428 -0.062161944806575775 0.1076027974486351 -0.05754973366856575 0.06734117865562439 0.26336178183555603 -0.038280583918094635 0.1605568677186966 4.91841696202755E-4 -0.14322827756404877 0.4119751751422882 0.25518861413002014 -0.0943605825304985 0.13860228657722473 -0.11963064968585968 -0.13951276242733002 0.1995750516653061 -0.059476252645254135 -0.1967400163412094 -0.19040700793266296 0.11285892128944397 -0.13516470789909363 0.13600829243659973 -0.04489815607666969 -0.2894495129585266 0.017695803195238113 -0.09887991845607758
see -0.087178535759449 0.10025854408740997 0.2100868672132492 -0.3040057420730591 -0.17257609963417053 -0.06869084388017654 0.032637327909469604 0.09382770210504532 -0.14691880345344543 -0.1371270716190338 0.15972107648849487 8.717375458218157E-4 0.14872165024280548 0.10905365645885468 -0.1399778127670288 0.02584451623260975 -0.13602815568447113 -0.08301416039466858 -0.12491482496261597 -0.0302431657910347 -0.08607122302055359 0.05856914445757866 -0.043951451778411865 -0.20135459303855896 -0.23240841925144196 0.016558298841118813 0.16656842827796936 -0.014469628222286701 0.006524120923131704 0.34654849767684937 -0.1038864329457283 -0.2708645164966583 -0.02498776651918888 -0.005111905746161938 0.05731450021266937 0.1271440088748932 -0.29709333181381226 0.04096038267016411 0.1592424064874649 0.0679837167263031 -0.19728697836399078 -0.16444015502929688 0.30272114276885986 -0.10500539839267731 0.14590980112552643 -0.310316264629364 -0.20428360998630524 0.09006775915622711 -0.016199057921767235 0.20938727259635925 0.33213961124420166 0.002486860379576683 0.040906865149736404 -0.1558733880519867 -0.15622691810131073 -0.08664988726377487 0.2272515892982483 0.17529471218585968 0.021762562915682793 -0.1100887581706047 0.08121906220912933 0.14238153398036957 -0.20669996738433838 0.2986220419406891 0.05980021506547928 -0.305736243724823 -0.07439449429512024 0.033430371433496475 -0.0357101708650589 0.024871008470654488 -0.07347229868173599 -0.03806052356958389 0.0666920468211174 0.1755836457014084 0.021619610488414764 -0.01995408535003662 -0.3103967308998108 -0.1251472383737564 -0.07183542847633362 0.07318795472383499 -0.14881300926208496 -0.09881596267223358 -0.17858830094337463 0.28851887583732605 0.347086101770401 0.03724163770675659 -0.04012336581945419 -0.32056841254234314 0.030846355482935905 -0.09385006129741669 -0.15304750204086304 0.07520299404859543 0.07491146773099899 -0.22026199102401733 -0.01643788255751133 0.07160337269306183 -0.3368963599205017 -0.0794190764427185 0.20415900647640228 -0.15603850781917572
found 0.04972197860479355 0.2901747524738312 0.45479610562324524 -0.02384107932448387 0.06520803272724152 -0.029324447736144066 -0.2958928048610687 0.14238062500953674 0.37400782108306885 -0.038862165063619614 0.06627003848552704 0.4972632825374603 -0.015123765915632248 0.2366592437028885 -0.30423569679260254 -0.1313346028327942 0.16188080608844757 -0.12995614111423492 -0.04048265889286995 -0.10224282741546631 -0.1598225086927414 0.21671830117702484 0.015911297872662544 -0.1645839661359787 0.002145593287423253 0.012968852184712887 0.0168411023914814 -0.17153652012348175 0.05913282185792923 0.178765669465065 -0.2575357258319855 -0.20303210616111755 -0.008513620123267174 -0.01764553226530552 -0.24680578708648682 0.22256077826023102 -0.307405948638916 -0.09723065048456192 -0.01523822732269764 0.20627155900001526 -0.23034800589084625 -0.04555271565914154 0.02234087511897087 0.10344740003347397 -0.17319025099277496 0.17367172241210938 -0.22845740616321564 -0.25560078024864197 -0.01988287828862667 -0.056349411606788635 0.06299707293510437 0.16591724753379822 -0.09038224816322327 0.3101955056190491 0.11632323265075684 -0.03413780778646469 0.12061845511198044 -0.30366092920303345 -0.12471926212310791 -0.04420044273138046 -0.12941880524158478 0.14426292479038239 0.2543037533760071 -0.07635606080293655 0.07747852057218552 0.07452577352523804 0.15417499840259552 -0.013041586615145206 -0.04806254059076309 -0.191811665892601 0.009368188679218292 0.19868268072605133 -0.06832889467477798 -0.16578198969364166 0.05130211263895035 0.4736962616443634 0.04936885088682175 -0.1198936402797699 -0.2902555465698242 -0.21119309961795807 -0.2617141604423523 -0.10187289118766785 -0.04822216555476189 0.0962059497833252 -0.11660382151603699 -0.007109111174941063 0.13105638325214386 -0.041199278086423874 0.0011513654608279467 -0.11264867335557938 -0.08295028656721115 0.0405685193836689 -0.19328249990940094 0.20706956088542938 -0.1103963702917099 0.006492690183222294 -0.077815480530262 -0.10440968722105026 -0.021399063989520073 0.08464886993169785
same -0.08863300085067749 0.12700314819812775 0.5354170799255371 -0.11296483129262924 0.04014773666858673 -0.2166479527950287 0.2542527914047241 0.24029916524887085 0.3857101798057556 -0.08175745606422424 -0.028419114649295807 0.2667813301086426 0.02530834451317787 0.029110051691532135 -0.28591659665107727 0.08477189391851425 0.16724225878715515 0.10465535521507263 0.058555491268634796 -0.31056690216064453 -0.039862699806690216 -0.09408402442932129 0.10872478038072586 0.5020424127578735 0.28766748309135437 0.09259964525699615 -0.5154749155044556 -0.27534499764442444 -0.03399118408560753 0.15708577632904053 0.3267003893852234 0.019543388858437538 -0.04026772081851959 -0.11222444474697113 0.18419575691223145 0.2100835144519806 0.20907624065876007 -0.07434848695993423 -0.028729600831866264 0.11551980674266815 -0.05629919096827507 0.1112435907125473 -0.03651532158255577 0.28523698449134827 -0.06693977862596512 0.09454936534166336 -0.1254895031452179 0.3293033838272095 0.6812877655029297 0.3993804454803467 0.04829977825284004 0.2878444194793701 -0.12481704354286194 -0.32991552352905273 0.12650816142559052 -0.23896920680999756 0.05191003903746605 -0.3312505781650543 0.07660451531410217 0.21140724420547485 -0.3636643588542938 -0.19818516075611115 -0.06169787794351578 0.016244564205408096 0.07012127339839935 0.26471254229545593 0.03662284463644028 -0.06109753996133804 0.2812027633190155 0.10230791568756104 0.10955437272787094 0.2039647102355957 -0.13026848435401917 -0.16491764783859253 0.04998714104294777 -0.2097601741552353 0.206856831908226 0.19158920645713806 0.014928276650607586 -0.07256907224655151 0.17610152065753937 -0.6638175249099731 0.1537701040506363 -0.18134309351444244 0.018383588641881943 0.030434967949986458 -0.37979117035865784 0.042052485048770905 -0.06094706431031227 -0.13560035824775696 -0.08459319174289703 -0.124264195561409 -0.580297589302063 -0.17015066742897034 0.08749652653932571 0.173650860786438 -0.1972898542881012 0.29755717515945435 0.3818649351596832 0.19669239223003387
are 0.16510307788848877 -0.28172752261161804 0.013191062957048416 -0.2783377766609192 -0.232815682888031 -0.19687606394290924 0.25388509035110474 0.1818857192993164 0.1319720298051834 -0.5349290370941162 0.12243431061506271 0.06977368891239166 0.4612944424152374 0.04210450127720833 -0.2928767204284668 -0.23319761455059052 -0.28696203231811523 0.4849654734134674 -0.5117387771606445 0.14891670644283295 -0.36002597212791443 -0.26889652013778687 -0.26593726873397827 -0.22276099026203156 0.021412499248981476 -0.23873771727085114 0.3259632885456085 -0.4449772536754608 0.22690172493457794 0.11180932819843292 -0.1315426081418991 0.12699203193187714 -0.20726023614406586 0.2634690999984741 0.14003753662109375 -0.10930696129798889 -0.031072435900568962 -0.0628199651837349 -0.2866538166999817 -0.20991100370883942 -0.01872796006500721 0.010655924677848816 0.11933065205812454 -0.09709838032722473 -0.31170955300331116 0.002230302896350622 0.499012291431427 -0.16567860543727875 -0.36869511008262634 -0.20407846570014954 0.36198413372039795 -0.09935767948627472 -0.4707051217556 -0.41539567708969116 -0.15113559365272522 -0.14465546607971191 -0.34665152430534363 0.08638793975114822 0.3313736617565155 0.15596431493759155 0.1431640088558197 -0.14421531558036804 0.13879619538784027 0.2239050567150116 0.037595588713884354 0.1652696132659912 -0.15919305384159088 0.10488578677177429 -0.1992931365966797 0.21342086791992188 -0.38360434770584106 -0.03744504973292351 0.4577466547489166 0.10533534735441208 -0.012061050161719322 -0.14525432884693146 0.022918354719877243 0.2174081802368164 0.008261438459157944 -0.016309408470988274 0.05856817588210106 0.08062975108623505 0.02770823799073696 8.242344483733177E-5 -0.3902108669281006 -0.3830030858516693 -0.006436285562813282 0.0683237835764885 -0.10265380144119263 -0.024910682812333107 0.19495418667793274 -0.27699539065361023 0.1647159308195114 -0.03622124716639519 -0.15760576725006104 -0.15066926181316376 -0.142743781208992 0.19441257417201996 -0.03244766220450401 0.21057815849781036
does 0.13924682140350342 0.27397599816322327 -0.011965831741690636 0.21996112167835236 0.42719462513923645 -0.19465038180351257 0.3533993065357208 -0.240330770611763 0.2297419309616089 0.003899057861417532 0.2515520453453064 -0.19522422552108765 -0.12120543420314789 0.4072287976741791 0.18889044225215912 0.1380290389060974 0.28163760900497437 0.3374096751213074 0.21271149814128876 -0.23793937265872955 0.10241180658340454 0.3755069375038147 -0.44898489117622375 -0.06007375940680504 -0.4222779870033264 -0.04555013030767441 0.12585484981536865 -0.005052549764513969 -0.280111700296402 0.03827786073088646 -0.271430641412735 -0.09878203272819519 -0.04392837733030319 0.3908037841320038 -0.23301668465137482 -0.18818612396717072 -0.14606395363807678 -0.18001613020896912 0.10781989991664886 -0.20227013528347015 -0.319291889667511 -0.1668732613325119 0.16379934549331665 -0.23327119648456573 0.12020482122898102 -0.5941705107688904 0.04534056782722473 0.1589154750108719 0.3608408272266388 -0.26791733503341675 -0.06328955292701721 0.03268259018659592 -0.13789863884449005 0.14661704003810883 0.5774410367012024 0.22946840524673462 0.5100911855697632 -0.1122278943657875 -0.3206876814365387 -0.04456426203250885 0.19518013298511505 -0.1429458111524582 -0.037645142525434494 0.12789925932884216 -0.3991990089416504 0.027851853519678116 0.02768160030245781 -0.11391876637935638 -0.46603158116340637 0.10370790213346481 -0.17922107875347137 -0.10384978353977203 -0.3923095166683197 0.08737403154373169 -0.0015387648018077016 -0.024667339399456978 0.1349979043006897 0.0436219722032547 -0.10517877340316772 0.2928937077522278 -0.09307929128408432 0.07798092812299728 -0.12380030006170273 0.08618924021720886 -0.026051871478557587 0.210651233792305 -0.16794200241565704 0.22849051654338837 0.025559604167938232 0.01754731312394142 -0.07520877569913864 -0.4664996862411499 0.023624766618013382 0.2780155837535858 -0.13421373069286346 -0.3283984363079071 0.37295711040496826 -0.13391709327697754 -0.008679916150867939 -0.07968784123659134
by -0.2958359718322754 0.07895423471927643 -0.05964686721563339 0.04788084700703621 -0.22330988943576813 -0.10130707919597626 -0.022162161767482758 -0.019705582410097122 0.03106512501835823 0.15044811367988586 0.2177933156490326 0.1409231722354889 -0.007348291110247374 0.07392317056655884 -0.1275174468755722 0.08004023879766464 -0.019967542961239815 0.10116323083639145 -0.23271051049232483 -0.13167846202850342 -0.0834822952747345 0.021245639771223068 0.13721835613250732 0.1103406772017479 0.14839646220207214 0.001389336190186441 0.11563655734062195 -0.17654520273208618 -0.0443214476108551 0.2206418216228485 -0.1332331895828247 -0.005202483851462603 -0.061375584453344345 -0.24789324402809143 -0.02516341209411621 0.04059334844350815 -0.01884947158396244 -0.1960456371307373 -0.1094772219657898 0.0793769359588623 -0.2620182931423187 0.016999322921037674 -0.06027385592460632 0.06429623812437057 0.25208085775375366 0.1386733502149582 0.030971353873610497 -0.025424353778362274 0.03583155572414398 -0.22752797603607178 0.1399223357439041 -0.015132199041545391 0.10162720829248428 0.006659267004579306 -0.3679996430873871 -0.032246243208646774 0.04568316042423248 0.01109301671385765 0.17506331205368042 -0.15515294671058655 0.05524623766541481 -0.18421973288059235 -0.2711656987667084 0.22096233069896698 0.10062658786773682 -0.10294163227081299 0.09963183104991913 -0.08272427320480347 0.007968494668602943 -0.16225756704807281 0.09413682669401169 0.06462478637695312 0.15585578978061676 -0.11971443891525269 0.07070859521627426 0.03311065584421158 0.018818991258740425 -0.03030446544289589 0.13039033114910126 -0.01183266006410122 0.2281518429517746 -0.004332255572080612 0.07279007881879807 -0.002880142070353031 0.2990359663963318 -0.01617611199617386 -0.20930838584899902 -0.19407649338245392 -0.0875953659415245 0.01542943250387907 -0.17811685800552368 0.049501411616802216 -0.2578493654727936 -0.048869501799345016 -0.0994110032916069 0.20770326256752014 0.13314121961593628 -0.201145738363266 -0.01853443868458271 -0.05366881564259529
national 0.02297814004123211 0.05338292568922043 -0.03117702715098858 -0.07823622971773148 -0.03946053981781006 -0.005757100880146027 -0.08031131327152252 0.06799226254224777 0.032891277223825455 0.06582380086183548 -0.003779551014304161 0.03275320678949356 -8.052878547459841E-4 -0.037742648273706436 -0.07221216708421707 -0.04079359024763107 0.028599165380001068 0.10004588216543198 0.01182541437447071 -0.05731065943837166 0.05811920762062073 -0.07559429109096527 0.005942071788012981 0.1470094621181488 0.0883074551820755 -0.10830181837081909 -0.09015622735023499 -9.080595336854458E-4 0.016196317970752716 -0.052212730050086975 0.009902119636535645 0.020518846809864044 -0.0052733346819877625 -0.04156557470560074 0.07859830558300018 0.015193440020084381 0.1486126333475113 -0.02421068400144577 -0.09121334552764893 -0.09334094077348709 -0.029020391404628754 0.041498247534036636 -0.031444378197193146 0.11111655086278915 0.03779672831296921 0.06582711637020111 -0.0794605016708374 0.06606658548116684 0.1686496138572693 0.025849968194961548 -0.035778164863586426 -0.015685517340898514 0.04112035036087036 0.03448557108640671 0.13140039145946503 0.006590540055185556 -0.0933433249592781 0.014181026257574558 0.00629652664065361 0.08218412101268768 0.027385607361793518 -0.06950367987155914 0.11460091173648834 -0.0019022076157853007 0.08912017196416855 0.0522855706512928 -0.02131274715065956 -0.01774570718407631 0.020294571295380592 0.09882056713104248 0.06945080310106277 -0.07827244699001312 -0.020261112600564957 -0.029781656339764595 -0.07532075047492981 -0.0879475325345993 0.06884995847940445 0.00899982824921608 0.14575183391571045 0.041677847504615784 -0.037985265254974365 -0.0906253382563591 -0.0178538765758276 7.509533315896988E-4 -0.06752146780490875 -0.1018071249127388 7.128280121833086E-4 -0.01639546826481819 -0.05128225311636925 0.12553130090236664 0.026193903759121895 0.05180446058511734 -0.09754151850938797 -0.009131397120654583 -0.007381926290690899 0.015305604785680771 0.008484270423650742 0.07279668748378754 0.041909296065568924 0.09979264438152313
where -0.3379153907299042 -0.14319173991680145 0.08911044895648956 0.10230214148759842 -0.07375836372375488 -0.21084077656269073 -0.11216892302036285 0.031703948974609375 0.13563181459903717 0.3819403648376465 -0.06400646269321442 -0.04480230435729027 0.2927292585372925 -0.03315048664808273 2.8550554998219013E-4 -0.23486389219760895 -0.0456068217754364 -0.3102797865867615 -0.40329617261886597 0.2052328884601593 -0.014458255842328072 0.00959163811057806 -0.22871379554271698 0.05957809463143349 0.04494279623031616 0.25075897574424744 -0.2053382843732834 0.09930600970983505 0.1334049254655838 -0.2756083607673645 0.0507509745657444 0.31913143396377563 0.19437190890312195 0.16989120841026306 0.037281107157468796 0.14827296137809753 0.060363445430994034 0.45959773659706116 0.0822155699133873 -0.02796722576022148 0.2984079420566559 0.2484857589006424 0.14616163074970245 -0.24913789331912994 -0.12342454493045807 -0.01989404670894146 0.1548340916633606 0.1594533622264862 0.3134266138076782 -0.0641750767827034 0.003826349275186658 0.3808828294277191 0.016233932226896286 -0.16324980556964874 0.18149018287658691 0.25914621353149414 0.14936868846416473 0.310636043548584 -0.047196902334690094 -0.31216758489608765 -0.11347059905529022 -0.013665655627846718 -0.11303188651800156 0.21787570416927338 -0.24986502528190613 0.42328065633773804 -0.4061092436313629 -0.1302981674671173 -0.06579207628965378 0.3065841495990753 0.33167630434036255 -0.18013425171375275 0.17201650142669678 0.15341132879257202 -0.02778290957212448 -0.17098425328731537 0.12929731607437134 0.11701242625713348 0.4893985688686371 0.030667249113321304 0.2533583641052246 0.1425575613975525 0.0513383187353611 0.33344560861587524 -0.08938086032867432 0.02763178199529648 -0.16700729727745056 -0.44884586334228516 -0.33239707350730896 -0.0699249729514122 -0.11189392954111099 0.29763272404670715 -0.2563484013080597 -0.05254855379462242 0.12954889237880707 0.16559277474880219 -0.5605961084365845 -0.19215990602970123 -0.13407368957996368 0.06489726901054382
after -0.22686855494976044 0.0035213385708630085 0.05003258213400841 0.08001250773668289 -0.1536676287651062 -0.1088864654302597 0.24667030572891235 -0.007643846794962883 0.041450630873441696 0.2789880633354187 0.26966798305511475 0.04215649887919426 0.18432922661304474 0.2712908387184143 -0.01979910396039486 0.06485047936439514 0.1379847228527069 -0.051894720643758774 -0.2813720107078552 -0.2121724784374237 -0.05812229588627815 -0.19524222612380981 -0.08298049122095108 0.1900329440832138 -0.08338403701782227 0.03817025199532509 0.008902707137167454 -0.28764548897743225 0.2510097026824951 0.181131973862648 -0.051911331713199615 0.12035943567752838 -0.18055018782615662 -0.2888413667678833 0.23894713819026947 0.26286476850509644 0.4170663058757782 -0.09029192477464676 0.14655691385269165 -0.2579457461833954 -0.13402196764945984 0.03918807581067085 0.10898545384407043 -0.02314702235162258 0.2558545768260956 0.4237084984779358 -0.07524210959672928 -0.23664425313472748 0.1483861207962036 -0.3139966130256653 0.0983283743262291 0.18659137189388275 0.2993020713329315 -0.0404728539288044 -0.28563299775123596 -0.11014346778392792 0.047653455287218094 0.11499736458063126 0.01044504251331091 -0.3029648959636688 -0.049242980778217316 0.11278238892555237 0.007447545882314444 0.050379347056150436 0.07980336993932724 0.2016908973455429 0.17099028825759888 -0.23142005503177643 0.10579463839530945 -0.07661815732717514 0.24785515666007996 -0.021810367703437805 0.14209412038326263 0.2508760094642639 0.09309586137533188 -0.09153011441230774 0.021402103826403618 -0.031035417690873146 0.43554237484931946 0.0800805315375328 0.12371180951595306 0.02200954407453537 0.2636525630950928 0.2835257947444916 0.01909252256155014 0.08561486005783081 -0.05627664551138878 -0.3087202310562134 0.0521053746342659 -0.16657452285289764 -0.49356141686439514 -0.08470124006271362 -0.18349198997020721 0.1570338010787964 -0.1531711369752884 0.08264593780040741 0.17675752937793732 -0.2757968008518219 0.16386426985263824 -0.07664168626070023
so -0.5508060455322266 -0.15093445777893066 0.10554930567741394 -0.34105512499809265 0.22194978594779968 0.005690975580364466 -0.006631726399064064 0.19992753863334656 -0.16028457880020142 -0.07221801578998566 0.24697361886501312 0.050878915935754776 -0.18229588866233826 -0.24199678003787994 0.12839755415916443 -0.15738707780838013 -0.03096720390021801 -0.08178167045116425 0.1836002767086029 0.05391659587621689 0.004303139168769121 -0.1263876110315323 -0.305097371339798 -0.33454957604408264 0.05311129614710808 0.18740302324295044 0.03697136789560318 0.0848606526851654 -0.23380783200263977 0.020770926028490067 -0.1143360286951065 -0.11098729819059372 0.1583615243434906 0.1580202579498291 0.023287542164325714 0.040742047131061554 -0.11096839606761932 -0.3068400025367737 0.06369385123252869 -0.05792291834950447 -0.004623171873390675 0.016925014555454254 0.0455210916697979 -0.002996227238327265 -0.10328619182109833 -0.07761257141828537 -0.07771031558513641 -0.05078231543302536 -0.34038156270980835 -0.0039540552534163 -0.23672010004520416 -0.08162817358970642 0.3329125642776489 -0.037218693643808365 -0.11193405091762543 0.28369346261024475 -0.03500157222151756 0.022525101900100708 0.16286273300647736 0.08721306920051575 -0.062350619584321976 0.05613556504249573 -0.20410524308681488 0.18096157908439636 -0.04456833377480507 0.10818753391504288 -0.12948106229305267 0.01890488713979721 -0.1190396323800087 -0.10824251919984818 -0.0014163702726364136 -0.016166938468813896 -0.06964180618524551 0.2500063478946686 -0.06951859593391418 -0.08499830961227417 -0.22576674818992615 0.01672760397195816 0.02711910381913185 -0.19959008693695068 -0.09247510880231857 0.1348828375339508 -0.06723687052726746 -0.0752376839518547 -0.15222816169261932 0.21773934364318848 -0.27026626467704773 0.08143696188926697 0.08772425353527069 0.02463054284453392 -0.13031716644763947 0.0920015349984169 0.19199363887310028 -0.16727055609226227 -0.2309623807668686 -0.09774567186832428 -0.10732853412628174 -0.23399601876735687 0.01622907444834709 -0.0600452646613121
a -0.06537900865077972 -0.2622778117656708 -0.03968776762485504 -0.3346436321735382 0.09561093896627426 -0.09601695090532303 0.2076781988143921 0.00448085181415081 0.08297250419855118 0.46706584095954895 -0.03451737388968468 0.3563554584980011 0.012252291664481163 -0.20768839120864868 -0.18791811168193817 0.21475741267204285 -0.038403887301683426 0.21155017614364624 -0.03249285742640495 0.2602299749851227 -0.1269688904285431 -0.03932337090373039 0.01498356182128191 0.11926410347223282 0.38884490728378296 0.24509428441524506 -0.18393433094024658 0.44988998770713806 -0.054401371628046036 -0.11521274596452713 0.004464125260710716 0.13531018793582916 -0.11302049458026886 0.11659291386604309 -0.03604082763195038 0.10540197044610977 -0.37259578704833984 -0.3007713854312897 -0.1449517160654068 -0.1159336268901825 -0.2788604497909546 -0.014805134385824203 -0.3118591606616974 0.17203646898269653 0.4028570353984833 0.2944537401199341 -0.3040695786476135 -0.401319295167923 0.10508666932582855 -0.3653482496738434 -0.3206533193588257 -0.09499341249465942 -0.1365174502134323 -0.23013193905353546 -0.36714690923690796 0.026824848726391792 0.08636116236448288 0.015262464061379433 -0.09906541556119919 -0.13644349575042725 -0.031536515802145004 -0.09498658776283264 0.04927365481853485 -0.14000654220581055 0.5253509879112244 -0.19367407262325287 -0.1514083445072174 -0.43792107701301575 -0.13907361030578613 -0.15705864131450653 -0.32763829827308655 0.10728706419467926 -0.2909732758998871 0.05810193717479706 0.007813346572220325 -0.24691790342330933 0.2128637433052063 0.22724156081676483 0.4038858711719513 -0.2259836196899414 0.1284780502319336 -0.3389071226119995 0.12895163893699646 -0.05715717747807503 -0.049120042473077774 0.05718434229493141 -0.0051991892978549 -0.052165400236845016 0.05883699655532837 -0.14769110083580017 0.43175339698791504 -0.49337080121040344 0.15657493472099304 0.002852155128493905 0.017165187746286392 0.013846651650965214 -0.02849838137626648 -0.25968843698501587 0.07369671016931534 0.0643477737903595
think 0.13989341259002686 0.05666590854525566 0.2051863670349121 -0.07277223467826843 0.1416040062904358 -0.08810794353485107 -0.35315924882888794 0.059318918734788895 -0.4339630603790283 0.1807381808757782 -0.04666489362716675 -0.12790177762508392 -0.1122102290391922 0.02014709822833538 -0.021542083472013474 -0.37773001194000244 -0.2599244713783264 -0.1711885631084442 0.15569652616977692 0.21583707630634308 -0.05229330062866211 0.07300158590078354 -0.005743188317865133 -0.10470294952392578 0.06259544938802719 -0.14788641035556793 -0.08146121352910995 0.1569189429283142 -0.008742271922528744 0.1052117720246315 -0.029598690569400787 -0.13286861777305603 -0.057213302701711655 -0.1810741126537323 0.316247820854187 -0.15136152505874634 -0.06216531991958618 0.16658255457878113 0.2607741951942444 0.34448543190956116 -0.008626938797533512 0.08616010844707489 0.1334010362625122 -0.08608248084783554 -0.21453821659088135 -0.31640490889549255 0.13608230650424957 0.05207502469420433 0.07968805730342865 0.21046395599842072 0.11185219138860703 -0.09399543702602386 -0.040158335119485855 -0.13835735619068146 -0.1697726994752884 -0.3113064169883728 -0.009443922899663448 -0.18149971961975098 -0.23121218383312225 0.03254975005984306 0.05206957459449768 0.22080285847187042 -0.05879615247249603 -0.14711610972881317 -0.1428534835577011 -0.05022149533033371 0.19271932542324066 -0.04946345090866089 0.06309978663921356 -0.22557991743087769 -0.210914745926857 0.0872514396905899 0.04304516687989235 -0.23475684225559235 0.105803482234478 0.14695632457733154 0.0786459669470787 -0.14341787993907928 -0.010274900123476982 0.006466382183134556 0.16364720463752747 -0.3588179349899292 -0.15358778834342957 0.15343911945819855 -0.19474202394485474 -0.10160117596387863 -0.2811627984046936 -0.24698485434055328 0.23670423030853271 -0.06541764736175537 -0.03100307658314705 0.09324197471141815 0.2957328259944916 0.11850631237030029 0.14569827914237976 -0.12294639647006989 -0.2797982096672058 -0.22029559314250946 0.3482740819454193 -0.2309545874595642
set 0.048253223299980164 0.25923147797584534 -0.12247737497091293 -0.05979704484343529 0.006541700102388859 0.1425890475511551 -0.14251892268657684 -0.011309197172522545 0.19050851464271545 0.012456676922738552 0.007442717906087637 0.08133922517299652 0.08772795647382736 0.08795446157455444 -0.10948514938354492 -0.028673022985458374 -0.05263353884220123 -0.20056742429733276 -0.06240886449813843 -0.09096674621105194 -0.10940933972597122 0.022185498848557472 0.16550350189208984 0.19646471738815308 -0.06314335018396378 -0.01868666522204876 -0.08939043432474136 -0.25098955631256104 0.17104168236255646 0.004041346255689859 -0.12422195076942444 -0.20901599526405334 -0.17706754803657532 -0.056749917566776276 -0.24945299327373505 0.1419176161289215 -0.051850974559783936 0.05198688805103302 -0.15030169486999512 0.020041964948177338 0.04674936458468437 0.09081487357616425 0.24878129363059998 0.013410313054919243 0.14355555176734924 0.15213079750537872 -0.04372330382466316 -0.11480938643217087 0.03690185025334358 -0.004765436053276062 -0.05335439369082451 -0.024370616301894188 -0.0025892448611557484 0.15770119428634644 0.07539548724889755 -0.11564464867115021 -0.050061650574207306 -0.04015031084418297 -0.01735774613916874 -0.0786602795124054 0.201577827334404 0.13370037078857422 0.014206153340637684 0.21447479724884033 0.0062330616638064384 -4.953958559781313E-4 -0.0017309992108494043 0.053454216569662094 0.04464481770992279 0.13001233339309692 -0.11350949108600616 0.2446642369031906 -0.022810691967606544 0.10226172208786011 0.1823367327451706 0.1560278683900833 -0.11410437524318695 0.07851710170507431 0.0547378808259964 -0.057731032371520996 -0.02414882741868496 -0.17604349553585052 -0.31347182393074036 0.1870952546596527 -0.03400523588061333 -0.03719524294137955 0.06950033456087112 0.035773489624261856 0.1014864444732666 0.15897725522518158 -0.17671239376068115 -0.009817078709602356 -0.25108423829078674 0.1434342861175537 -0.11717911809682846 0.1912739872932434 0.15352188050746918 0.11782151460647583 0.0641966313123703 -0.028083454817533493
